{"learner":{"attributes":{"scikit_learn":"{\"_estimator_type\": \"regressor\"}"},"feature_names":["y","carat","surface_area","volume","clarity_enc","color_enc","x"],"feature_types":["float","float","float","float","float","float","float"],"gradient_booster":{"model":{"gbtree_model_param":{"num_parallel_tree":"1","num_trees":"300"},"iteration_indptr":[0,1,2,3,4,5,6,7,8,9,10,11,12,13,14,15,16,17,18,19,20,21,22,23,24,25,26,27,28,29,30,31,32,33,34,35,36,37,38,39,40,41,42,43,44,45,46,47,48,49,50,51,52,53,54,55,56,57,58,59,60,61,62,63,64,65,66,67,68,69,70,71,72,73,74,75,76,77,78,79,80,81,82,83,84,85,86,87,88,89,90,91,92,93,94,95,96,97,98,99,100,101,102,103,104,105,106,107,108,109,110,111,112,113,114,115,116,117,118,119,120,121,122,123,124,125,126,127,128,129,130,131,132,133,134,135,136,137,138,139,140,141,142,143,144,145,146,147,148,149,150,151,152,153,154,155,156,157,158,159,160,161,162,163,164,165,166,167,168,169,170,171,172,173,174,175,176,177,178,179,180,181,182,183,184,185,186,187,188,189,190,191,192,193,194,195,196,197,198,199,200,201,202,203,204,205,206,207,208,209,210,211,212,213,214,215,216,217,218,219,220,221,222,223,224,225,226,227,228,229,230,231,232,233,234,235,236,237,238,239,240,241,242,243,244,245,246,247,248,249,250,251,252,253,254,255,256,257,258,259,260,261,262,263,264,265,266,267,268,269,270,271,272,273,274,275,276,277,278,279,280,281,282,283,284,285,286,287,288,289,290,291,292,293,294,295,296,297,298,299,300],"tree_info":[0,0,0,0,0,0,0,0,0,0,0,0,0,0,0,0,0,0,0,0,0,0,0,0,0,0,0,0,0,0,0,0,0,0,0,0,0,0,0,0,0,0,0,0,0,0,0,0,0,0,0,0,0,0,0,0,0,0,0,0,0,0,0,0,0,0,0,0,0,0,0,0,0,0,0,0,0,0,0,0,0,0,0,0,0,0,0,0,0,0,0,0,0,0,0,0,0,0,0,0,0,0,0,0,0,0,0,0,0,0,0,0,0,0,0,0,0,0,0,0,0,0,0,0,0,0,0,0,0,0,0,0,0,0,0,0,0,0,0,0,0,0,0,0,0,0,0,0,0,0,0,0,0,0,0,0,0,0,0,0,0,0,0,0,0,0,0,0,0,0,0,0,0,0,0,0,0,0,0,0,0,0,0,0,0,0,0,0,0,0,0,0,0,0,0,0,0,0,0,0,0,0,0,0,0,0,0,0,0,0,0,0,0,0,0,0,0,0,0,0,0,0,0,0,0,0,0,0,0,0,0,0,0,0,0,0,0,0,0,0,0,0,0,0,0,0,0,0,0,0,0,0,0,0,0,0,0,0,0,0,0,0,0,0,0,0,0,0,0,0,0,0,0,0,0,0,0,0,0,0,0,0,0,0,0,0,0,0,0,0,0,0,0,0,0,0,0,0,0,0],"trees":[{"base_weights":[1.8422692E-3,-7.680031E-1,7.9305875E-1,-1.0100149E0,-2.3085292E-1,3.7044433E-1,1.0755956E0,-1.119543E0,-7.996526E-1,-4.3060157E-1,-1.2305572E-1,2.5828403E-1,6.2112784E-1,9.7905993E-1,1.3262999E0,-1.1773368E0,-9.2187434E-1,-9.2754227E-1,-6.7120814E-1,-5.0837004E-1,-3.3971182E-1,-1.944786E-1,3.3184066E-2,1.5850538E-1,3.5039148E-1,3.8074784E-2,6.3706887E-1,8.166637E-1,1.1958528E0,1.2062265E0,1.4319704E0,-1.3424132E0,-1.124234E0,-1.2582047E0,-8.4782857E-1,-9.855368E-1,-8.4068537E-1,-8.449039E-1,-6.161066E-1,-5.911244E-1,-4.2386588E-1,-4.201378E-1,-2.347278E-1,-5.2675587E-1,-1.6896707E-1,-8.023659E-2,1.8228237E-1,6.596138E-2,2.2164084E-1,1.9092646E-1,4.290699E-1,-5.709365E-2,1.6106139E-1,5.200351E-1,6.874739E-1,7.274408E-1,9.077893E-1,9.6880245E-1,1.2857699E0,1.008585E0,1.29744E0,1.02003835E-1,1.4519181E0,-1.4246564E-1,-1.252718E-1,-1.3599889E-1,-1.077132E-1,-1.3448052E-1,-1.1573346E-1,-1.0000586E-1,-7.913291E-2,-1.0825918E-1,-9.3036294E-2,-1.0486295E-1,-7.954042E-2,-1.02651015E-1,-7.993254E-2,-6.762876E-2,-4.9482994E-2,-7.6875694E-2,-5.6254636E-2,-5.5918038E-2,-3.6493734E-2,-4.4714943E-2,-1.5467758E-2,-3.8255956E-2,-1.7233975E-2,-5.4915916E-2,-4.5053377E-3,-2.309896E-2,-8.000173E-3,-3.026933E-2,-3.8354483E-3,5.1545077E-3,2.4868965E-2,-4.4396218E-2,7.6286043E-3,1.641799E-2,3.2852326E-2,-1.0881069E-3,2.300386E-2,3.5142936E-2,5.0202828E-2,9.340239E-3,-1.1500832E-2,-1.794386E-3,2.0453617E-2,4.0091332E-2,5.5306386E-2,4.7820386E-2,7.311301E-2,4.0206846E-2,7.575687E-2,8.6787954E-2,1.00827314E-1,8.822597E-2,1.0599542E-1,1.2241279E-1,1.4654867E-1,6.772586E-2,1.0484766E-1,1.09315954E-1,1.406518E-1,1.3555372E-1,1.4774033E-1],"categories":[],"categories_nodes":[],"categories_segments":[],"categories_sizes":[],"default_left":[0,0,0,0,0,0,0,0,0,0,0,0,0,0,0,0,0,0,0,0,0,0,0,0,0,0,0,0,0,0,0,0,0,0,0,0,0,0,0,0,0,0,0,0,0,0,0,0,0,0,0,0,0,0,0,0,0,0,0,0,0,0,0,0,0,0,0,0,0,0,0,0,0,0,0,0,0,0,0,0,0,0,0,0,0,0,0,0,0,0,0,0,0,0,0,0,0,0,0,0,0,0,0,0,0,0,0,0,0,0,0,0,0,0,0,0,0,0,0,0,0,0,0,0,0],"id":0,"left_children":[1,3,5,7,9,11,13,15,17,19,21,23,25,27,29,31,33,35,37,39,41,43,45,47,49,51,53,55,57,59,61,63,65,67,69,71,73,75,77,79,81,83,85,87,89,91,93,95,97,99,101,103,105,107,109,111,113,115,117,119,121,-1,123,-1,-1,-1,-1,-1,-1,-1,-1,-1,-1,-1,-1,-1,-1,-1,-1,-1,-1,-1,-1,-1,-1,-1,-1,-1,-1,-1,-1,-1,-1,-1,-1,-1,-1,-1,-1,-1,-1,-1,-1,-1,-1,-1,-1,-1,-1,-1,-1,-1,-1,-1,-1,-1,-1,-1,-1,-1,-1,-1,-1,-1,-1],"loss_changes":[2.171249E4,2.348416E3,2.0986074E3,2.860752E2,1.20808044E2,1.97922E2,2.5366895E2,9.245508E1,6.948657E1,1.3730774E1,4.0703682E1,4.469229E1,2.0209717E1,2.6694336E2,3.5398438E1,5.399707E1,4.5179688E1,9.93103E0,1.9894165E1,7.1481323E0,7.584923E0,2.1128677E1,1.9377525E1,1.36517105E1,3.1673157E1,6.9975775E-1,1.21427E1,3.4739746E1,6.5248535E1,2.3497437E1,1.1263672E1,9.545898E0,5.1803223E1,1.3525391E0,1.2324951E1,5.8201904E0,7.2824707E0,3.4092102E0,1.1510864E1,2.268158E0,3.998169E0,3.6164703E0,3.5955753E0,1.8961906E0,1.2816048E1,6.053729E0,4.284725E0,5.035417E0,8.482834E0,6.6169376E0,9.419312E0,3.070836E-1,2.0600766E-1,2.304184E0,1.3153259E1,2.1310669E1,7.7470703E0,6.385376E0,2.4017822E1,5.092224E0,1.9363525E1,0E0,1.6254883E0,0E0,0E0,0E0,0E0,0E0,0E0,0E0,0E0,0E0,0E0,0E0,0E0,0E0,0E0,0E0,0E0,0E0,0E0,0E0,0E0,0E0,0E0,0E0,0E0,0E0,0E0,0E0,0E0,0E0,0E0,0E0,0E0,0E0,0E0,0E0,0E0,0E0,0E0,0E0,0E0,0E0,0E0,0E0,0E0,0E0,0E0,0E0,0E0,0E0,0E0,0E0,0E0,0E0,0E0,0E0,0E0,0E0,0E0,0E0,0E0,0E0,0E0],"parents":[2147483647,0,0,1,1,2,2,3,3,4,4,5,5,6,6,7,7,8,8,9,9,10,10,11,11,12,12,13,13,14,14,15,15,16,16,17,17,18,18,19,19,20,20,21,21,22,22,23,23,24,24,25,25,26,26,27,27,28,28,29,29,30,30,31,31,32,32,33,33,34,34,35,35,36,36,37,37,38,38,39,39,40,40,41,41,42,42,43,43,44,44,45,45,46,46,47,47,48,48,49,49,50,50,51,51,52,52,53,53,54,54,55,55,56,56,57,57,58,58,59,59,60,60,62,62],"right_children":[2,4,6,8,10,12,14,16,18,20,22,24,26,28,30,32,34,36,38,40,42,44,46,48,50,52,54,56,58,60,62,64,66,68,70,72,74,76,78,80,82,84,86,88,90,92,94,96,98,100,102,104,106,108,110,112,114,116,118,120,122,-1,124,-1,-1,-1,-1,-1,-1,-1,-1,-1,-1,-1,-1,-1,-1,-1,-1,-1,-1,-1,-1,-1,-1,-1,-1,-1,-1,-1,-1,-1,-1,-1,-1,-1,-1,-1,-1,-1,-1,-1,-1,-1,-1,-1,-1,-1,-1,-1,-1,-1,-1,-1,-1,-1,-1,-1,-1,-1,-1,-1,-1,-1,-1],"split_conditions":[5.56E0,4.6E-1,9.9E-1,4.59E0,3E0,1.3655734E2,2.0069617E2,6E0,4E0,5.4E-1,5E0,3E0,1E0,3E0,7.21E0,3E0,3E-1,3E0,3E0,5E0,5E0,2E0,4E0,4E0,3E0,4E0,2E0,2E0,3E0,2E0,1E0,4E0,4.26E0,2.6E-1,3E0,4.72E0,3E0,1E0,6E0,5.03E0,2E0,5.52E0,2E0,6.3E-1,5.25E0,2E0,5.2E-1,1E0,1.20788666E2,1E0,1.167595E2,2E0,6.07E0,3E0,2E0,1E0,6.65E0,6.63E0,5E0,1E0,2E0,1.02003835E-1,1E0,-1.4246564E-1,-1.252718E-1,-1.3599889E-1,-1.077132E-1,-1.3448052E-1,-1.1573346E-1,-1.0000586E-1,-7.913291E-2,-1.0825918E-1,-9.3036294E-2,-1.0486295E-1,-7.954042E-2,-1.02651015E-1,-7.993254E-2,-6.762876E-2,-4.9482994E-2,-7.6875694E-2,-5.6254636E-2,-5.5918038E-2,-3.6493734E-2,-4.4714943E-2,-1.5467758E-2,-3.8255956E-2,-1.7233975E-2,-5.4915916E-2,-4.5053377E-3,-2.309896E-2,-8.000173E-3,-3.026933E-2,-3.8354483E-3,5.1545077E-3,2.4868965E-2,-4.4396218E-2,7.6286043E-3,1.641799E-2,3.2852326E-2,-1.0881069E-3,2.300386E-2,3.5142936E-2,5.0202828E-2,9.340239E-3,-1.1500832E-2,-1.794386E-3,2.0453617E-2,4.0091332E-2,5.5306386E-2,4.7820386E-2,7.311301E-2,4.0206846E-2,7.575687E-2,8.6787954E-2,1.00827314E-1,8.822597E-2,1.0599542E-1,1.2241279E-1,1.4654867E-1,6.772586E-2,1.0484766E-1,1.09315954E-1,1.406518E-1,1.3555372E-1,1.4774033E-1],"split_indices":[0,1,1,6,4,3,3,4,4,1,4,4,4,4,0,5,1,4,5,5,5,5,5,5,5,5,4,4,5,4,4,4,6,1,5,6,5,5,4,6,4,0,4,1,6,5,1,4,3,5,3,5,0,5,5,4,0,0,4,4,5,0,5,0,0,0,0,0,0,0,0,0,0,0,0,0,0,0,0,0,0,0,0,0,0,0,0,0,0,0,0,0,0,0,0,0,0,0,0,0,0,0,0,0,0,0,0,0,0,0,0,0,0,0,0,0,0,0,0,0,0,0,0,0,0],"split_type":[0,0,0,0,0,0,0,0,0,0,0,0,0,0,0,0,0,0,0,0,0,0,0,0,0,0,0,0,0,0,0,0,0,0,0,0,0,0,0,0,0,0,0,0,0,0,0,0,0,0,0,0,0,0,0,0,0,0,0,0,0,0,0,0,0,0,0,0,0,0,0,0,0,0,0,0,0,0,0,0,0,0,0,0,0,0,0,0,0,0,0,0,0,0,0,0,0,0,0,0,0,0,0,0,0,0,0,0,0,0,0,0,0,0,0,0,0,0,0,0,0,0,0,0,0],"sum_hessian":[3.5644E4,1.8066E4,1.7578E4,1.2454E4,5.612E3,7.044E3,1.0534E4,8.187E3,4.267E3,1.966E3,3.646E3,4.868E3,2.176E3,7.609E3,2.925E3,6.331E3,1.856E3,2.135E3,2.132E3,1.057E3,9.09E2,2.502E3,1.144E3,2.338E3,2.53E3,5.8E1,2.118E3,4.353E3,3.256E3,1.375E3,1.55E3,1.535E3,4.796E3,3.32E2,1.524E3,1.274E3,8.61E2,5.1E2,1.622E3,5.31E2,5.26E2,5.13E2,3.96E2,1.77E2,2.325E3,6.5E2,4.94E2,9.49E2,1.389E3,8.37E2,1.693E3,3.3E1,2.5E1,6.41E2,1.477E3,2.204E3,2.149E3,9.27E2,2.329E3,4.38E2,9.37E2,7.4E1,1.476E3,7.93E2,7.42E2,7.94E2,4.002E3,1.72E2,1.6E2,4.08E2,1.116E3,4.55E2,8.19E2,1.5E2,7.11E2,9.8E1,4.12E2,1.081E3,5.41E2,7E1,4.61E2,1.57E2,3.69E2,4.65E2,4.8E1,1.16E2,2.8E2,1.69E2,8E0,1.369E3,9.56E2,1.02E2,5.48E2,1.67E2,3.27E2,1.8E1,9.31E2,9.05E2,4.84E2,1.36E2,7.01E2,8.23E2,8.7E2,9E0,2.4E1,5E0,2E1,1.42E2,4.99E2,2.57E2,1.22E3,1.88E2,2.016E3,1.545E3,6.04E2,4.81E2,4.46E2,1.74E3,5.89E2,4.9E1,3.89E2,3.3E2,6.07E2,3.2E2,1.156E3],"tree_param":{"num_deleted":"0","num_feature":"7","num_nodes":"125","size_leaf_vector":"1"}},{"base_weights":[1.4007181E-3,-6.9674575E-1,7.0698005E-1,-9.1267526E-1,-2.1812357E-1,3.2693806E-1,9.674791E-1,-9.9957716E-1,-7.093294E-1,-4.0121433E-1,-1.2017347E-1,2.2906952E-1,5.7069415E-1,8.761213E-1,1.1840342E0,-1.1898935E0,-9.5005363E-1,-8.2528895E-1,-5.950989E-1,-4.7637925E-1,-3.1546047E-1,-1.817663E-1,1.3301845E-2,1.4363772E-1,3.1018022E-1,4.488523E-1,6.2787014E-1,7.317208E-1,1.071543E0,1.079995E0,1.287249E0,-1.3081903E0,-1.1158445E0,-1.2264849E0,-8.9708275E-1,-8.7840563E-1,-7.376322E-1,-8.1774205E-1,-5.5943835E-1,-5.9828055E-1,-4.322986E-1,-4.5598647E-1,-2.5772235E-1,-3.825435E-1,-1.4471467E-1,-9.3320034E-2,1.594673E-1,2.5016192E-2,1.9764206E-1,1.0174602E-1,3.5864428E-1,5.7705645E-2,4.819927E-1,4.417098E-1,6.6545755E-1,6.512659E-1,8.151362E-1,8.622179E-1,1.1520345E0,9.6704423E-1,1.2109234E0,9.141737E-1,1.3065064E0,-1.3402289E-1,-1.1917766E-1,-1.2623745E-1,-1.0654765E-1,-1.3683322E-1,-1.15034066E-1,-1.0699941E-1,-8.3663896E-2,-9.724387E-2,-8.401077E-2,-9.6513405E-2,-7.0996836E-2,-9.1290556E-2,-7.47711E-2,-6.0862757E-2,-4.5759138E-2,-6.9907695E-2,-5.471002E-2,-5.204785E-2,-3.883114E-2,-4.6925824E-2,2.7367235E-3,-3.2550998E-2,-1.3311041E-2,-5.7952363E-2,-3.2433815E-2,-2.6375545E-2,-1.1394237E-2,-4.0854122E-2,-5.012717E-3,3.679831E-3,2.2921793E-2,-2.2692181E-2,6.0762437E-3,8.007554E-3,2.3293141E-2,-2.3841469E-2,1.1864773E-2,2.6461056E-2,4.2453405E-2,-2.7270159E-3,1.61521E-2,2.9721022E-2,4.9898062E-2,2.0672936E-2,4.565222E-2,6.3149266E-2,7.9069875E-2,3.4776974E-2,6.781301E-2,6.865899E-2,8.4311746E-2,6.8717875E-2,8.996749E-2,1.098415E-1,1.3138041E-1,6.1791476E-2,9.9015586E-2,9.953527E-2,1.3195632E-1,6.721295E-2,9.889331E-2,1.24325134E-1,1.342997E-1],"categories":[],"categories_nodes":[],"categories_segments":[],"categories_sizes":[],"default_left":[0,0,0,0,0,0,0,0,0,0,0,0,0,0,0,0,0,0,0,0,0,0,0,0,0,0,0,0,0,0,0,0,0,0,0,0,0,0,0,0,0,0,0,0,0,0,0,0,0,0,0,0,0,0,0,0,0,0,0,0,0,0,0,0,0,0,0,0,0,0,0,0,0,0,0,0,0,0,0,0,0,0,0,0,0,0,0,0,0,0,0,0,0,0,0,0,0,0,0,0,0,0,0,0,0,0,0,0,0,0,0,0,0,0,0,0,0,0,0,0,0,0,0,0,0,0,0],"id":1,"left_children":[1,3,5,7,9,11,13,15,17,19,21,23,25,27,29,31,33,35,37,39,41,43,45,47,49,51,53,55,57,59,61,63,65,67,69,71,73,75,77,79,81,83,85,87,89,91,93,95,97,99,101,103,105,107,109,111,113,115,117,119,121,123,125,-1,-1,-1,-1,-1,-1,-1,-1,-1,-1,-1,-1,-1,-1,-1,-1,-1,-1,-1,-1,-1,-1,-1,-1,-1,-1,-1,-1,-1,-1,-1,-1,-1,-1,-1,-1,-1,-1,-1,-1,-1,-1,-1,-1,-1,-1,-1,-1,-1,-1,-1,-1,-1,-1,-1,-1,-1,-1,-1,-1,-1,-1,-1,-1],"loss_changes":[1.758229E4,1.8539795E3,1.7571416E3,2.1775879E2,1.0000421E2,1.7213379E2,2.0732812E2,8.0481445E1,4.8585938E1,1.2380127E1,2.9894417E1,3.566977E1,1.4124817E1,2.0834668E2,3.2135254E1,1.4167725E1,9.9583496E1,7.9005127E0,1.4389465E1,5.297531E0,7.2740707E0,1.8453178E1,1.7921398E1,1.6087128E1,2.6661926E1,8.5794525E0,9.53717E0,2.8092285E1,5.2030518E1,2.1913818E1,1.0027832E1,9.42749E-1,6.8029785E0,1.0339233E1,5.945166E1,3.28125E0,3.7140198E0,1.0234985E0,7.8122864E0,1.0207291E0,2.7574158E0,1.7063904E0,5.43042E0,4.249111E0,7.669903E0,9.033699E0,4.141343E0,7.1013827E0,7.14225E0,2.902935E0,1.31716E1,4.719597E-1,1.7728119E0,7.374916E-1,4.464905E0,1.7505432E1,6.9385986E0,5.1383057E0,1.824707E1,6.1901855E0,1.55251465E1,7.829132E-1,1.753418E0,0E0,0E0,0E0,0E0,0E0,0E0,0E0,0E0,0E0,0E0,0E0,0E0,0E0,0E0,0E0,0E0,0E0,0E0,0E0,0E0,0E0,0E0,0E0,0E0,0E0,0E0,0E0,0E0,0E0,0E0,0E0,0E0,0E0,0E0,0E0,0E0,0E0,0E0,0E0,0E0,0E0,0E0,0E0,0E0,0E0,0E0,0E0,0E0,0E0,0E0,0E0,0E0,0E0,0E0,0E0,0E0,0E0,0E0,0E0,0E0,0E0,0E0,0E0,0E0],"parents":[2147483647,0,0,1,1,2,2,3,3,4,4,5,5,6,6,7,7,8,8,9,9,10,10,11,11,12,12,13,13,14,14,15,15,16,16,17,17,18,18,19,19,20,20,21,21,22,22,23,23,24,24,25,25,26,26,27,27,28,28,29,29,30,30,31,31,32,32,33,33,34,34,35,35,36,36,37,37,38,38,39,39,40,40,41,41,42,42,43,43,44,44,45,45,46,46,47,47,48,48,49,49,50,50,51,51,52,52,53,53,54,54,55,55,56,56,57,57,58,58,59,59,60,60,61,61,62,62],"right_children":[2,4,6,8,10,12,14,16,18,20,22,24,26,28,30,32,34,36,38,40,42,44,46,48,50,52,54,56,58,60,62,64,66,68,70,72,74,76,78,80,82,84,86,88,90,92,94,96,98,100,102,104,106,108,110,112,114,116,118,120,122,124,126,-1,-1,-1,-1,-1,-1,-1,-1,-1,-1,-1,-1,-1,-1,-1,-1,-1,-1,-1,-1,-1,-1,-1,-1,-1,-1,-1,-1,-1,-1,-1,-1,-1,-1,-1,-1,-1,-1,-1,-1,-1,-1,-1,-1,-1,-1,-1,-1,-1,-1,-1,-1,-1,-1,-1,-1,-1,-1,-1,-1,-1,-1,-1,-1],"split_conditions":[5.52E0,1.080618E2,9.9E-1,3.8E-1,3E0,1.65606E2,6.87E0,3E0,4E0,5E0,5E0,3E0,2E0,3E0,7.21E0,4E0,3E-1,3E0,2E0,1.172614E2,2E0,3E0,4E0,1.459624E2,2E0,1E0,2E0,2E0,3E0,3E0,1E0,3.4E-1,2E0,5E0,3E0,2E0,2E0,5E0,6E0,2E0,2E0,6.3E-1,8.926641E1,1.169298E2,8.271148E1,1.141518E2,8.511681E1,7E-1,3E0,6.9E-1,1.1581995E2,4E0,2E0,8.9E-1,4E0,1E0,2E0,1E0,5E0,1E0,2E0,2.401912E2,2E0,-1.3402289E-1,-1.1917766E-1,-1.2623745E-1,-1.0654765E-1,-1.3683322E-1,-1.15034066E-1,-1.0699941E-1,-8.3663896E-2,-9.724387E-2,-8.401077E-2,-9.6513405E-2,-7.0996836E-2,-9.1290556E-2,-7.47711E-2,-6.0862757E-2,-4.5759138E-2,-6.9907695E-2,-5.471002E-2,-5.204785E-2,-3.883114E-2,-4.6925824E-2,2.7367235E-3,-3.2550998E-2,-1.3311041E-2,-5.7952363E-2,-3.2433815E-2,-2.6375545E-2,-1.1394237E-2,-4.0854122E-2,-5.012717E-3,3.679831E-3,2.2921793E-2,-2.2692181E-2,6.0762437E-3,8.007554E-3,2.3293141E-2,-2.3841469E-2,1.1864773E-2,2.6461056E-2,4.2453405E-2,-2.7270159E-3,1.61521E-2,2.9721022E-2,4.9898062E-2,2.0672936E-2,4.565222E-2,6.3149266E-2,7.9069875E-2,3.4776974E-2,6.781301E-2,6.865899E-2,8.4311746E-2,6.8717875E-2,8.996749E-2,1.098415E-1,1.3138041E-1,6.1791476E-2,9.9015586E-2,9.953527E-2,1.3195632E-1,6.721295E-2,9.889331E-2,1.24325134E-1,1.342997E-1],"split_indices":[0,2,1,1,4,2,0,4,4,5,4,4,4,4,0,5,1,4,5,2,4,5,5,2,5,4,5,4,5,4,4,1,4,4,5,4,5,4,4,4,4,1,3,2,3,2,3,1,5,1,3,5,5,1,4,4,5,5,4,4,5,2,4,0,0,0,0,0,0,0,0,0,0,0,0,0,0,0,0,0,0,0,0,0,0,0,0,0,0,0,0,0,0,0,0,0,0,0,0,0,0,0,0,0,0,0,0,0,0,0,0,0,0,0,0,0,0,0,0,0,0,0,0,0,0,0,0],"split_type":[0,0,0,0,0,0,0,0,0,0,0,0,0,0,0,0,0,0,0,0,0,0,0,0,0,0,0,0,0,0,0,0,0,0,0,0,0,0,0,0,0,0,0,0,0,0,0,0,0,0,0,0,0,0,0,0,0,0,0,0,0,0,0,0,0,0,0,0,0,0,0,0,0,0,0,0,0,0,0,0,0,0,0,0,0,0,0,0,0,0,0,0,0,0,0,0,0,0,0,0,0,0,0,0,0,0,0,0,0,0,0,0,0,0,0,0,0,0,0,0,0,0,0,0,0,0,0],"sum_hessian":[3.5691E4,1.794E4,1.7751E4,1.2362E4,5.578E3,7.22E3,1.0531E4,8.658E3,3.704E3,1.943E3,3.635E3,5.153E3,2.067E3,7.41E3,3.121E3,1.783E3,6.875E3,1.835E3,1.869E3,1.033E3,9.1E2,2.487E3,1.148E3,2.511E3,2.642E3,6.63E2,1.404E3,4.264E3,3.146E3,1.56E3,1.561E3,6.8E2,1.103E3,1.102E3,5.773E3,1.137E3,6.98E2,2.55E2,1.614E3,2.71E2,7.62E2,2.63E2,6.47E2,3.86E2,2.101E3,6.64E2,4.84E2,7.86E2,1.725E3,4.99E2,2.143E3,5.2E1,6.11E2,2.38E2,1.166E3,2.175E3,2.089E3,8.77E2,2.269E3,8.42E2,7.18E2,7.9E1,1.482E3,5.25E2,1.55E2,2.76E2,8.27E2,3.79E2,7.23E2,1.491E3,4.282E3,3.22E2,8.15E2,7.2E1,6.26E2,1.03E2,1.52E2,1.085E3,5.29E2,8.7E1,1.84E2,2.5E2,5.12E2,2.56E2,7E0,4.18E2,2.29E2,8.6E1,3E2,4.3E2,1.671E3,7.9E1,5.85E2,1.76E2,3.08E2,9.7E1,6.89E2,3.99E2,1.326E3,2.3E1,4.76E2,8.85E2,1.258E3,2.9E1,2.3E1,5.3E1,5.58E2,1.5E1,2.23E2,9.22E2,2.44E2,1.78E2,1.997E3,3.78E2,1.711E3,1.58E2,7.19E2,1.71E3,5.59E2,5.4E1,7.88E2,2.44E2,4.74E2,2.1E1,5.8E1,5.55E2,9.27E2],"tree_param":{"num_deleted":"0","num_feature":"7","num_nodes":"127","size_leaf_vector":"1"}},{"base_weights":[1.4891169E-3,-6.2091535E-1,6.450763E-1,-8.1918913E-1,-1.8582742E-1,3.0389598E-1,8.71917E-1,-9.3471617E-1,-6.8571603E-1,-3.5031438E-1,-1.503591E-1,2.0434211E-1,4.935714E-1,7.699822E-1,1.0336741E0,-1.059023E0,-8.762191E-1,-7.639205E-1,-6.0518557E-1,-4.7632515E-1,-2.9928175E-1,-2.0237628E-1,-4.8535526E-2,9.586296E-2,2.47837E-1,3.6005208E-1,5.2484727E-1,6.361358E-1,8.308317E-1,9.476168E-1,1.1554257E0,-1.1546136E0,-1.0127472E0,-1.127844E0,-8.4790236E-1,-8.9149064E-1,-7.246031E-1,-7.1062714E-1,-5.8134854E-1,-5.618014E-1,-3.8815343E-1,-4.7478715E-1,-2.7337366E-1,-3.8620397E-1,-1.7994176E-1,-8.183754E-2,2.9979283E-2,-4.921786E-2,1.2601677E-1,1.417253E-1,2.7683774E-1,2.1967198E-1,4.112052E-1,3.7913358E-1,5.5020845E-1,5.6062704E-1,6.8845737E-1,6.743968E-1,8.5423964E-1,8.532873E-1,1.0616673E0,1.0665962E0,1.178202E0,-1.2328686E-1,-1.127516E-1,-1.1388202E-1,-9.624113E-2,-1.2569834E-1,-1.0935471E-1,-9.3980126E-2,-8.2874045E-2,-9.590285E-2,-8.3276525E-2,-7.587945E-2,-6.940114E-2,-8.4717765E-2,-6.793689E-2,-6.1600138E-2,-5.454401E-2,-5.7253756E-2,-2.698875E-2,-4.50806E-2,-3.4716006E-2,-5.172921E-2,-4.1033503E-2,-3.0582998E-2,-1.4292926E-2,-4.4294544E-2,-3.330509E-2,-1.9778503E-2,-1.1541746E-2,-1.00073805E-2,5.4047367E-5,-1.6810528E-4,1.3640875E-2,-9.257241E-3,3.317513E-3,2.9611445E-3,1.7869635E-2,-8.550799E-3,1.592019E-2,2.4193024E-2,3.157795E-2,5.499155E-3,2.6236592E-2,4.1829944E-2,1.3810329E-2,3.1660654E-2,4.0721912E-2,4.3931823E-2,5.650424E-2,4.61999E-2,6.2093902E-2,6.386029E-2,7.532285E-2,5.254863E-2,7.0494555E-2,8.217657E-2,8.953354E-2,7.271143E-2,8.9098066E-2,8.125542E-2,1.0727618E-1,8.265548E-2,1.0808217E-1,3.6439862E-2,1.1791561E-1],"categories":[],"categories_nodes":[],"categories_segments":[],"categories_sizes":[],"default_left":[0,0,0,0,0,0,0,0,0,0,0,0,0,0,0,0,0,0,0,0,0,0,0,0,0,0,0,0,0,0,0,0,0,0,0,0,0,0,0,0,0,0,0,0,0,0,0,0,0,0,0,0,0,0,0,0,0,0,0,0,0,0,0,0,0,0,0,0,0,0,0,0,0,0,0,0,0,0,0,0,0,0,0,0,0,0,0,0,0,0,0,0,0,0,0,0,0,0,0,0,0,0,0,0,0,0,0,0,0,0,0,0,0,0,0,0,0,0,0,0,0,0,0,0,0,0,0],"id":2,"left_children":[1,3,5,7,9,11,13,15,17,19,21,23,25,27,29,31,33,35,37,39,41,43,45,47,49,51,53,55,57,59,61,63,65,67,69,71,73,75,77,79,81,83,85,87,89,91,93,95,97,99,101,103,105,107,109,111,113,115,117,119,121,123,125,-1,-1,-1,-1,-1,-1,-1,-1,-1,-1,-1,-1,-1,-1,-1,-1,-1,-1,-1,-1,-1,-1,-1,-1,-1,-1,-1,-1,-1,-1,-1,-1,-1,-1,-1,-1,-1,-1,-1,-1,-1,-1,-1,-1,-1,-1,-1,-1,-1,-1,-1,-1,-1,-1,-1,-1,-1,-1,-1,-1,-1,-1,-1,-1],"loss_changes":[1.4268356E4,1.5619629E3,1.3550513E3,1.9116504E2,3.3026535E1,1.3198523E2,1.7263232E2,4.7537598E1,3.5907715E1,6.320259E0,2.4703987E1,2.1628479E1,9.862488E0,5.2052246E1,4.1475098E1,8.2438965E0,3.137793E1,1.4030029E1,6.75E0,1.9524765E0,3.1349564E0,1.2665688E1,4.1310673E0,5.7589827E0,1.0038986E1,3.2128754E0,6.9901733E0,7.602417E0,1.5664307E1,2.4763428E1,2.1381836E0,6.665039E-2,8.055054E0,6.4508057E-1,6.4108887E0,1.9182129E0,1.8184814E0,1.6482544E0,2.5632324E0,2.9678726E-1,2.1590805E-1,3.703499E-2,2.6150818E0,8.628311E-1,3.1479187E0,1.6660676E0,1.5873072E0,8.139405E-1,5.5252953E0,2.8133554E0,3.4185028E0,8.644285E-1,5.932083E-1,3.838539E-1,2.477417E0,4.668213E0,3.3616943E0,2.277069E0,4.4074707E0,5.587158E0,2.1021729E0,3.1204224E-1,5.998535E-1,0E0,0E0,0E0,0E0,0E0,0E0,0E0,0E0,0E0,0E0,0E0,0E0,0E0,0E0,0E0,0E0,0E0,0E0,0E0,0E0,0E0,0E0,0E0,0E0,0E0,0E0,0E0,0E0,0E0,0E0,0E0,0E0,0E0,0E0,0E0,0E0,0E0,0E0,0E0,0E0,0E0,0E0,0E0,0E0,0E0,0E0,0E0,0E0,0E0,0E0,0E0,0E0,0E0,0E0,0E0,0E0,0E0,0E0,0E0,0E0,0E0,0E0,0E0,0E0],"parents":[2147483647,0,0,1,1,2,2,3,3,4,4,5,5,6,6,7,7,8,8,9,9,10,10,11,11,12,12,13,13,14,14,15,15,16,16,17,17,18,18,19,19,20,20,21,21,22,22,23,23,24,24,25,25,26,26,27,27,28,28,29,29,30,30,31,31,32,32,33,33,34,34,35,35,36,36,37,37,38,38,39,39,40,40,41,41,42,42,43,43,44,44,45,45,46,46,47,47,48,48,49,49,50,50,51,51,52,52,53,53,54,54,55,55,56,56,57,57,58,58,59,59,60,60,61,61,62,62],"right_children":[2,4,6,8,10,12,14,16,18,20,22,24,26,28,30,32,34,36,38,40,42,44,46,48,50,52,54,56,58,60,62,64,66,68,70,72,74,76,78,80,82,84,86,88,90,92,94,96,98,100,102,104,106,108,110,112,114,116,118,120,122,124,126,-1,-1,-1,-1,-1,-1,-1,-1,-1,-1,-1,-1,-1,-1,-1,-1,-1,-1,-1,-1,-1,-1,-1,-1,-1,-1,-1,-1,-1,-1,-1,-1,-1,-1,-1,-1,-1,-1,-1,-1,-1,-1,-1,-1,-1,-1,-1,-1,-1,-1,-1,-1,-1,-1,-1,-1,-1,-1,-1,-1,-1,-1,-1,-1],"split_conditions":[6.8E-1,4.6E-1,9.9E-1,4.47E0,3E0,6E0,6.76E0,4.3E0,4.71E0,5.16E0,1.241352E2,3E0,9E-1,3E0,7.16E0,4.12E0,2E0,3E0,3E0,2E0,1E0,5.05E0,9.8116844E1,1E0,5.69E0,3E0,2E0,2E0,6.34E0,3E0,1E0,4E0,3E0,1E0,3E0,2E0,4.57E0,1E0,4.79E0,1.190026E2,1.150008E2,1.270088E2,9.8116844E1,5E0,6E0,6E0,6E0,5.83E0,5.73E0,5.52E0,5E0,1E0,6.25E0,1E0,6.09E0,6.48E0,1.7226883E2,6.21E0,1.6911157E2,1E0,1.8697623E2,1.46E0,1.29E0,-1.2328686E-1,-1.127516E-1,-1.1388202E-1,-9.624113E-2,-1.2569834E-1,-1.0935471E-1,-9.3980126E-2,-8.2874045E-2,-9.590285E-2,-8.3276525E-2,-7.587945E-2,-6.940114E-2,-8.4717765E-2,-6.793689E-2,-6.1600138E-2,-5.454401E-2,-5.7253756E-2,-2.698875E-2,-4.50806E-2,-3.4716006E-2,-5.172921E-2,-4.1033503E-2,-3.0582998E-2,-1.4292926E-2,-4.4294544E-2,-3.330509E-2,-1.9778503E-2,-1.1541746E-2,-1.00073805E-2,5.4047367E-5,-1.6810528E-4,1.3640875E-2,-9.257241E-3,3.317513E-3,2.9611445E-3,1.7869635E-2,-8.550799E-3,1.592019E-2,2.4193024E-2,3.157795E-2,5.499155E-3,2.6236592E-2,4.1829944E-2,1.3810329E-2,3.1660654E-2,4.0721912E-2,4.3931823E-2,5.650424E-2,4.61999E-2,6.2093902E-2,6.386029E-2,7.532285E-2,5.254863E-2,7.0494555E-2,8.217657E-2,8.953354E-2,7.271143E-2,8.9098066E-2,8.125542E-2,1.0727618E-1,8.265548E-2,1.0808217E-1,3.6439862E-2,1.1791561E-1],"split_indices":[1,1,1,6,5,0,0,6,6,0,2,5,1,5,0,6,5,5,5,5,5,0,3,5,0,5,5,5,0,5,5,5,5,5,5,5,6,5,6,2,2,2,3,0,5,5,5,0,0,0,5,5,6,5,0,0,3,0,3,5,3,1,1,0,0,0,0,0,0,0,0,0,0,0,0,0,0,0,0,0,0,0,0,0,0,0,0,0,0,0,0,0,0,0,0,0,0,0,0,0,0,0,0,0,0,0,0,0,0,0,0,0,0,0,0,0,0,0,0,0,0,0,0,0,0,0,0],"split_type":[0,0,0,0,0,0,0,0,0,0,0,0,0,0,0,0,0,0,0,0,0,0,0,0,0,0,0,0,0,0,0,0,0,0,0,0,0,0,0,0,0,0,0,0,0,0,0,0,0,0,0,0,0,0,0,0,0,0,0,0,0,0,0,0,0,0,0,0,0,0,0,0,0,0,0,0,0,0,0,0,0,0,0,0,0,0,0,0,0,0,0,0,0,0,0,0,0,0,0,0,0,0,0,0,0,0,0,0,0,0,0,0,0,0,0,0,0,0,0,0,0,0,0,0,0,0,0],"sum_hessian":[3.5618E4,1.8107E4,1.7511E4,1.2438E4,5.669E3,6.994E3,1.0517E4,6.664E3,5.774E3,1.004E3,4.665E3,4.588E3,2.406E3,6.455E3,4.062E3,2.127E3,4.537E3,2.925E3,2.849E3,2.87E2,7.17E2,3.087E3,1.578E3,1.314E3,3.274E3,4.59E2,1.947E3,2.021E3,4.434E3,2.385E3,1.677E3,6.86E2,1.441E3,4.55E2,4.082E3,6.84E2,2.241E3,5.2E2,2.329E3,1.43E2,1.44E2,9E1,6.27E2,3.34E2,2.753E3,1.108E3,4.7E2,2.26E2,1.088E3,7.04E2,2.57E3,1.24E2,3.35E2,2.91E2,1.656E3,8.32E2,1.189E3,5.81E2,3.853E3,1.31E3,1.075E3,3.52E2,1.325E3,1.65E2,5.21E2,4.05E2,1.036E3,8.8E1,3.67E2,6.96E2,3.386E3,3.11E2,3.73E2,1.047E3,1.194E3,9.2E1,4.28E2,1.177E3,1.152E3,1.37E2,6E0,5.3E1,9.1E1,5E1,4E1,5.01E2,1.26E2,1.58E2,1.76E2,2.155E3,5.98E2,9.07E2,2.01E2,3.63E2,1.07E2,1.48E2,7.8E1,3.85E2,7.03E2,5E1,6.54E2,1.359E3,1.211E3,2.6E1,9.8E1,3.26E2,9E0,9.4E1,1.97E2,1.99E2,1.457E3,3.19E2,5.13E2,6.78E2,5.11E2,1.02E2,4.79E2,2.164E3,1.689E3,3.06E2,1.004E3,4.9E1,1.026E3,2.3E1,3.29E2,2E0,1.323E3],"tree_param":{"num_deleted":"0","num_feature":"7","num_nodes":"127","size_leaf_vector":"1"}},{"base_weights":[4.0560318E-4,-5.558884E-1,5.819204E-1,-7.3812634E-1,-1.6823238E-1,2.6926154E-1,7.8122574E-1,-8.4200245E-1,-6.1825913E-1,-3.2624802E-1,-8.2938805E-2,1.869716E-1,4.376003E-1,6.913345E-1,9.3498516E-1,-9.2496616E-1,-7.188393E-1,-7.204531E-1,-5.101142E-1,-3.8242576E-1,-2.346756E-1,-1.3885133E-1,3.6889564E-2,1.0323253E-1,2.6366264E-1,3.065307E-1,4.9189976E-1,5.6684816E-1,8.6871046E-1,8.4260744E-1,1.023385E0,-1.0474433E0,-8.816815E-1,-9.2262626E-1,-6.443119E-1,-7.798548E-1,-6.455848E-1,-6.464772E-1,-4.6339297E-1,-4.8576692E-1,-3.362698E-1,-5.9358854E-2,-2.1648657E-1,-3.8615358E-1,-1.18366055E-1,-5.2786555E-2,1.5837069E-1,3.0113043E-2,1.4821933E-1,8.898276E-2,3.0314484E-1,-5.7811674E-2,3.3286273E-1,3.2250136E-1,5.2458274E-1,4.9505022E-1,6.410186E-1,6.7212397E-1,9.3642914E-1,7.2751087E-1,9.67683E-1,6.7817146E-1,1.0391077E0,-1.1061134E-1,-1.0001173E-1,-1.1244047E-1,-8.510031E-2,-9.914677E-2,-8.426718E-2,-7.607637E-2,-6.0156982E-2,-8.528768E-2,-7.0268914E-2,-6.933698E-2,-5.658942E-2,-7.085354E-2,-5.542606E-2,-5.0952204E-2,-3.7627157E-2,-6.0749393E-2,-4.536754E-2,-4.3720048E-2,-2.8514335E-2,-2.5888517E-2,-1.0752E-3,-4.472831E-2,-2.0238508E-2,-1.5568881E-2,-2.3779853E-3,-3.1292908E-2,-1.8861046E-3,2.7999817E-3,2.0735973E-2,-3.206702E-2,4.272822E-3,-6.7094964E-4,1.7298175E-2,-1.2875019E-3,1.2854548E-2,2.64822E-2,4.294475E-2,-1.4960229E-2,2.1604921E-3,1.8566482E-2,3.648111E-2,2.2981813E-2,3.7278645E-2,4.627977E-2,5.9142746E-2,2.3953741E-2,5.1729538E-2,5.9554107E-2,6.9815345E-2,5.8601107E-2,7.431493E-2,8.8360555E-2,1.092067E-1,4.1255098E-2,7.491862E-2,7.599955E-2,1.0627103E-1,4.9853217E-2,7.834232E-2,9.707889E-2,1.07904814E-1],"categories":[],"categories_nodes":[],"categories_segments":[],"categories_sizes":[],"default_left":[0,0,0,0,0,0,0,0,0,0,0,0,0,0,0,0,0,0,0,0,0,0,0,0,0,0,0,0,0,0,0,0,0,0,0,0,0,0,0,0,0,0,0,0,0,0,0,0,0,0,0,0,0,0,0,0,0,0,0,0,0,0,0,0,0,0,0,0,0,0,0,0,0,0,0,0,0,0,0,0,0,0,0,0,0,0,0,0,0,0,0,0,0,0,0,0,0,0,0,0,0,0,0,0,0,0,0,0,0,0,0,0,0,0,0,0,0,0,0,0,0,0,0,0,0],"id":3,"left_children":[1,3,5,7,9,11,13,15,17,19,21,23,25,27,29,31,33,35,37,39,41,43,45,47,49,51,53,55,57,59,61,63,65,67,69,71,73,75,77,79,81,-1,83,85,87,89,91,93,95,97,99,101,103,105,107,109,111,113,115,117,119,121,123,-1,-1,-1,-1,-1,-1,-1,-1,-1,-1,-1,-1,-1,-1,-1,-1,-1,-1,-1,-1,-1,-1,-1,-1,-1,-1,-1,-1,-1,-1,-1,-1,-1,-1,-1,-1,-1,-1,-1,-1,-1,-1,-1,-1,-1,-1,-1,-1,-1,-1,-1,-1,-1,-1,-1,-1,-1,-1,-1,-1,-1,-1],"loss_changes":[1.1529297E4,1.2866865E3,1.0856211E3,1.5375146E2,7.8494125E1,9.390796E1,1.4642969E2,6.7131836E1,6.3246582E1,1.0414993E1,2.5364271E1,2.9250824E1,1.5698822E1,1.4786914E2,3.1173584E1,2.007544E1,4.0032715E1,1.2647095E1,1.7539368E1,5.865692E0,4.9570236E0,1.3029781E1,1.3135576E1,7.1697426E0,1.6380386E1,6.303238E0,8.539642E0,2.07229E1,3.6233154E1,2.699353E1,1.0150635E1,1.7508545E0,2.08833E1,3.0945435E0,9.307983E0,8.664246E0,4.611328E0,3.6819153E0,8.203613E0,1.2400818E0,4.4008484E0,0E0,6.478298E0,2.1225128E0,8.415867E0,6.118972E0,3.264207E0,3.6954613E0,5.1803207E0,1.7747543E0,9.276413E0,3.312686E-1,2.8056335E0,1.1120987E0,5.165497E0,1.1312134E1,4.625E0,3.925354E0,1.5946289E1,6.558716E0,1.732965E1,1.3111E0,4.166992E0,0E0,0E0,0E0,0E0,0E0,0E0,0E0,0E0,0E0,0E0,0E0,0E0,0E0,0E0,0E0,0E0,0E0,0E0,0E0,0E0,0E0,0E0,0E0,0E0,0E0,0E0,0E0,0E0,0E0,0E0,0E0,0E0,0E0,0E0,0E0,0E0,0E0,0E0,0E0,0E0,0E0,0E0,0E0,0E0,0E0,0E0,0E0,0E0,0E0,0E0,0E0,0E0,0E0,0E0,0E0,0E0,0E0,0E0,0E0,0E0,0E0,0E0],"parents":[2147483647,0,0,1,1,2,2,3,3,4,4,5,5,6,6,7,7,8,8,9,9,10,10,11,11,12,12,13,13,14,14,15,15,16,16,17,17,18,18,19,19,20,20,21,21,22,22,23,23,24,24,25,25,26,26,27,27,28,28,29,29,30,30,31,31,32,32,33,33,34,34,35,35,36,36,37,37,38,38,39,39,40,40,42,42,43,43,44,44,45,45,46,46,47,47,48,48,49,49,50,50,51,51,52,52,53,53,54,54,55,55,56,56,57,57,58,58,59,59,60,60,61,61,62,62],"right_children":[2,4,6,8,10,12,14,16,18,20,22,24,26,28,30,32,34,36,38,40,42,44,46,48,50,52,54,56,58,60,62,64,66,68,70,72,74,76,78,80,82,-1,84,86,88,90,92,94,96,98,100,102,104,106,108,110,112,114,116,118,120,122,124,-1,-1,-1,-1,-1,-1,-1,-1,-1,-1,-1,-1,-1,-1,-1,-1,-1,-1,-1,-1,-1,-1,-1,-1,-1,-1,-1,-1,-1,-1,-1,-1,-1,-1,-1,-1,-1,-1,-1,-1,-1,-1,-1,-1,-1,-1,-1,-1,-1,-1,-1,-1,-1,-1,-1,-1,-1,-1,-1,-1,-1,-1],"split_conditions":[5.58E0,1.080618E2,6.27E0,4.47E0,3E0,6E0,1.9281914E2,5E0,4E0,1.236744E2,5E0,3E0,2E0,3E0,7.06E0,3E0,4.25E0,4.72E0,3E0,2E0,1E0,2E0,4E0,2E0,2E0,1E0,2E0,2E0,3E0,3E0,1E0,2E0,4.23E0,4.202705E1,3E0,3E0,3E0,6E0,6E0,8.119124E1,4E0,-5.9358854E-2,1.038312E2,1.282922E2,1.252414E2,1.141518E2,5.14E0,1E0,2E0,1E0,5E0,6.11E0,1.393539E2,1E0,3E0,1E0,4E0,2E0,5E0,1E0,2E0,2.401912E2,2E0,-1.1061134E-1,-1.0001173E-1,-1.1244047E-1,-8.510031E-2,-9.914677E-2,-8.426718E-2,-7.607637E-2,-6.0156982E-2,-8.528768E-2,-7.0268914E-2,-6.933698E-2,-5.658942E-2,-7.085354E-2,-5.542606E-2,-5.0952204E-2,-3.7627157E-2,-6.0749393E-2,-4.536754E-2,-4.3720048E-2,-2.8514335E-2,-2.5888517E-2,-1.0752E-3,-4.472831E-2,-2.0238508E-2,-1.5568881E-2,-2.3779853E-3,-3.1292908E-2,-1.8861046E-3,2.7999817E-3,2.0735973E-2,-3.206702E-2,4.272822E-3,-6.7094964E-4,1.7298175E-2,-1.2875019E-3,1.2854548E-2,2.64822E-2,4.294475E-2,-1.4960229E-2,2.1604921E-3,1.8566482E-2,3.648111E-2,2.2981813E-2,3.7278645E-2,4.627977E-2,5.9142746E-2,2.3953741E-2,5.1729538E-2,5.9554107E-2,6.9815345E-2,5.8601107E-2,7.431493E-2,8.8360555E-2,1.092067E-1,4.1255098E-2,7.491862E-2,7.599955E-2,1.0627103E-1,4.9853217E-2,7.834232E-2,9.707889E-2,1.07904814E-1],"split_indices":[0,2,0,6,4,0,3,4,4,2,4,4,4,4,0,5,6,6,5,4,4,5,5,4,5,4,5,4,5,4,4,5,6,3,5,4,4,4,4,3,5,0,3,2,2,2,6,4,5,5,4,0,3,5,4,4,5,5,4,4,5,2,4,0,0,0,0,0,0,0,0,0,0,0,0,0,0,0,0,0,0,0,0,0,0,0,0,0,0,0,0,0,0,0,0,0,0,0,0,0,0,0,0,0,0,0,0,0,0,0,0,0,0,0,0,0,0,0,0,0,0,0,0,0,0],"split_type":[0,0,0,0,0,0,0,0,0,0,0,0,0,0,0,0,0,0,0,0,0,0,0,0,0,0,0,0,0,0,0,0,0,0,0,0,0,0,0,0,0,0,0,0,0,0,0,0,0,0,0,0,0,0,0,0,0,0,0,0,0,0,0,0,0,0,0,0,0,0,0,0,0,0,0,0,0,0,0,0,0,0,0,0,0,0,0,0,0,0,0,0,0,0,0,0,0,0,0,0,0,0,0,0,0,0,0,0,0,0,0,0,0,0,0,0,0,0,0,0,0,0,0,0,0],"sum_hessian":[3.5638E4,1.8214E4,1.7424E4,1.2389E4,5.825E3,6.784E3,1.064E4,6.634E3,5.755E3,2.041E3,3.784E3,4.558E3,2.226E3,6.718E3,3.922E3,3.96E3,2.674E3,2.956E3,2.799E3,1.263E3,7.78E2,2.58E3,1.204E3,2.18E3,2.378E3,6.54E2,1.572E3,3.95E3,2.768E3,1.923E3,1.999E3,1.028E3,2.932E3,7.13E2,1.961E3,1.643E3,1.313E3,7.11E2,2.088E3,3.87E2,8.76E2,3.6E1,7.42E2,1.96E2,2.384E3,6.93E2,5.11E2,8.31E2,1.349E3,4.39E2,1.939E3,4.4E1,6.1E2,2.56E2,1.316E3,2.011E3,1.939E3,7.12E2,2.056E3,1.005E3,9.18E2,8.9E1,1.91E3,4.49E2,5.79E2,3.25E2,2.607E3,3.77E2,3.36E2,5.22E2,1.439E3,8.39E2,8.04E2,8.16E2,4.97E2,4.21E2,2.9E2,1.362E3,7.26E2,7.7E1,3.1E2,2.92E2,5.84E2,6.15E2,1.27E2,1.46E2,5E1,1.709E3,6.75E2,7.9E1,6.14E2,1.4E2,3.71E2,2.8E1,8.03E2,1.86E2,1.163E3,1.23E2,3.16E2,1.49E3,4.49E2,2E1,2.4E1,1.1E2,5E2,9.2E1,1.64E2,6.88E2,6.28E2,1.62E2,1.849E3,1.086E3,8.53E2,3.26E2,3.86E2,1.54E3,5.16E2,6.6E1,9.39E2,2.91E2,6.27E2,3.5E1,5.4E1,7.14E2,1.196E3],"tree_param":{"num_deleted":"0","num_feature":"7","num_nodes":"125","size_leaf_vector":"1"}},{"base_weights":[-8.166299E-4,-5.0359213E-1,5.226367E-1,-6.634405E-1,-1.500009E-1,2.4639271E-1,7.051466E-1,-7.3375493E-1,-5.089312E-1,-3.0222276E-1,-6.972265E-2,1.7627424E-1,4.1697454E-1,6.155425E-1,8.357818E-1,-9.01317E-1,-6.901064E-1,-5.719838E-1,-3.6751467E-1,-4.0465796E-1,-2.5815463E-1,-1.2433663E-1,5.0149456E-2,1.0192037E-1,2.495972E-1,4.980519E-3,4.2784148E-1,5.427772E-1,9.0322244E-1,7.660162E-1,9.036433E-1,-9.5363873E-1,-8.30416E-1,-8.408981E-1,-6.350036E-1,-6.4668906E-1,-5.1524574E-1,-4.111948E-1,-3.309119E-1,-6.3758485E-2,-3.9487204E-1,-3.3160776E-1,-2.0827164E-1,-3.8765842E-1,-1.14199474E-1,-1.2955827E-3,1.5030083E-1,-4.000242E-1,1.1427399E-1,2.2119465E-1,3.4347472E-1,-5.3959977E-2,4.534647E-2,4.0345418E-1,5.55735E-1,4.9724224E-1,6.38012E-1,6.023742E-1,9.3066674E-1,7.1928304E-1,9.3771183E-1,8.736764E-1,9.9968195E-2,-1.0523101E-1,-9.254531E-2,-9.576123E-2,-7.8730926E-2,-9.098971E-2,-7.674656E-2,-7.028513E-2,-5.476449E-2,-7.2954044E-2,-6.1362702E-2,-5.542017E-2,-4.664817E-2,-4.4193666E-2,-3.8148746E-2,-3.4307446E-2,-2.5971789E-2,-4.195345E-2,-3.238424E-2,-5.1668476E-2,-3.1255122E-2,-2.351175E-2,-1.3734207E-2,-4.3381687E-2,-3.322698E-2,-1.4342517E-2,-6.375413E-3,-1.8831005E-2,1.3961992E-3,1.0721704E-2,2.076206E-2,-4.7665622E-2,-2.4947692E-2,6.844307E-3,1.9538233E-2,1.8264873E-2,2.9385641E-2,3.1236112E-2,4.63627E-2,7.688332E-3,-8.730756E-3,-6.5891542E-3,7.3551065E-3,3.4559842E-2,4.343156E-2,5.0632756E-2,6.474426E-2,4.293419E-2,5.6622654E-2,3.504423E-2,6.5323494E-2,5.1621344E-2,7.415762E-2,8.941683E-2,9.74787E-2,6.8660736E-2,7.783327E-2,4.9840916E-2,9.435415E-2,8.429208E-2,1.000335E-1],"categories":[],"categories_nodes":[],"categories_segments":[],"categories_sizes":[],"default_left":[0,0,0,0,0,0,0,0,0,0,0,0,0,0,0,0,0,0,0,0,0,0,0,0,0,0,0,0,0,0,0,0,0,0,0,0,0,0,0,0,0,0,0,0,0,0,0,0,0,0,0,0,0,0,0,0,0,0,0,0,0,0,0,0,0,0,0,0,0,0,0,0,0,0,0,0,0,0,0,0,0,0,0,0,0,0,0,0,0,0,0,0,0,0,0,0,0,0,0,0,0,0,0,0,0,0,0,0,0,0,0,0,0,0,0,0,0,0,0,0,0,0,0],"id":4,"left_children":[1,3,5,7,9,11,13,15,17,19,21,23,25,27,29,31,33,35,37,39,41,43,45,47,49,51,53,55,57,59,61,63,65,67,69,71,73,75,77,-1,79,81,83,85,87,89,91,93,95,97,99,101,103,105,107,109,111,113,115,117,119,121,-1,-1,-1,-1,-1,-1,-1,-1,-1,-1,-1,-1,-1,-1,-1,-1,-1,-1,-1,-1,-1,-1,-1,-1,-1,-1,-1,-1,-1,-1,-1,-1,-1,-1,-1,-1,-1,-1,-1,-1,-1,-1,-1,-1,-1,-1,-1,-1,-1,-1,-1,-1,-1,-1,-1,-1,-1,-1,-1,-1,-1],"loss_changes":[9.378138E3,1.0272266E3,8.800112E2,1.3561426E2,6.914473E1,8.3019104E1,1.225332E2,6.2276855E1,3.472528E1,8.7161255E0,2.4274824E1,2.6824905E1,9.055054E0,1.3011182E2,1.954248E1,5.7890625E0,5.619165E1,1.114502E1,1.8001099E0,1.0839767E0,4.9470367E0,6.754524E0,5.982005E0,1.5219152E1,6.5339355E0,1.2854391E-1,5.9233093E0,2.1287231E1,9.826172E0,1.6287964E1,5.345825E0,1.8462524E0,3.4186401E0,8.543579E0,2.927417E1,2.7435913E0,2.6744995E0,3.3187103E-1,4.858551E-1,0E0,8.5388184E-1,1.7853775E0,1.5253143E0,9.6180916E-2,3.6087914E0,2.1940305E0,9.507437E-1,5.617542E-1,8.867186E0,5.284683E0,2.0009995E0,1.0270525E-1,1.0524393E-1,2.8120728E0,1.0903931E0,1.5565552E1,6.810364E0,9.1251373E-1,9.817505E-1,2.6801147E0,6.7962646E-1,5.60376E0,0E0,0E0,0E0,0E0,0E0,0E0,0E0,0E0,0E0,0E0,0E0,0E0,0E0,0E0,0E0,0E0,0E0,0E0,0E0,0E0,0E0,0E0,0E0,0E0,0E0,0E0,0E0,0E0,0E0,0E0,0E0,0E0,0E0,0E0,0E0,0E0,0E0,0E0,0E0,0E0,0E0,0E0,0E0,0E0,0E0,0E0,0E0,0E0,0E0,0E0,0E0,0E0,0E0,0E0,0E0,0E0,0E0,0E0,0E0,0E0,0E0],"parents":[2147483647,0,0,1,1,2,2,3,3,4,4,5,5,6,6,7,7,8,8,9,9,10,10,11,11,12,12,13,13,14,14,15,15,16,16,17,17,18,18,19,19,20,20,21,21,22,22,23,23,24,24,25,25,26,26,27,27,28,28,29,29,30,30,31,31,32,32,33,33,34,34,35,35,36,36,37,37,38,38,40,40,41,41,42,42,43,43,44,44,45,45,46,46,47,47,48,48,49,49,50,50,51,51,52,52,53,53,54,54,55,55,56,56,57,57,58,58,59,59,60,60,61,61],"right_children":[2,4,6,8,10,12,14,16,18,20,22,24,26,28,30,32,34,36,38,40,42,44,46,48,50,52,54,56,58,60,62,64,66,68,70,72,74,76,78,-1,80,82,84,86,88,90,92,94,96,98,100,102,104,106,108,110,112,114,116,118,120,122,-1,-1,-1,-1,-1,-1,-1,-1,-1,-1,-1,-1,-1,-1,-1,-1,-1,-1,-1,-1,-1,-1,-1,-1,-1,-1,-1,-1,-1,-1,-1,-1,-1,-1,-1,-1,-1,-1,-1,-1,-1,-1,-1,-1,-1,-1,-1,-1,-1,-1,-1,-1,-1,-1,-1,-1,-1,-1,-1,-1,-1],"split_conditions":[7E-1,4.96E0,9.9E-1,4.63E0,3E0,1.65606E2,3E0,3E0,5E0,2E0,5E0,3E0,1E0,1.39E0,6.63E0,4.41E0,4.3E0,3E0,4.76E0,1E0,5.18E0,5E-1,1.252414E2,1E0,5E0,6.13E0,4E0,1.99825E2,1E0,5E0,1.4E0,2E0,2E0,4.2E0,5E0,2E0,4.77E0,6E0,7E0,-6.3758485E-2,1.263202E2,5E-1,5.9E-1,4E0,4E0,4.8E-1,6E-1,5.69E0,1.2160048E2,1.501336E2,1.2160048E2,1.668128E2,9.1E-1,2E0,5E0,2E0,1E0,2.50683E2,2E0,4E0,6.24E0,5E0,9.9968195E-2,-1.0523101E-1,-9.254531E-2,-9.576123E-2,-7.8730926E-2,-9.098971E-2,-7.674656E-2,-7.028513E-2,-5.476449E-2,-7.2954044E-2,-6.1362702E-2,-5.542017E-2,-4.664817E-2,-4.4193666E-2,-3.8148746E-2,-3.4307446E-2,-2.5971789E-2,-4.195345E-2,-3.238424E-2,-5.1668476E-2,-3.1255122E-2,-2.351175E-2,-1.3734207E-2,-4.3381687E-2,-3.322698E-2,-1.4342517E-2,-6.375413E-3,-1.8831005E-2,1.3961992E-3,1.0721704E-2,2.076206E-2,-4.7665622E-2,-2.4947692E-2,6.844307E-3,1.9538233E-2,1.8264873E-2,2.9385641E-2,3.1236112E-2,4.63627E-2,7.688332E-3,-8.730756E-3,-6.5891542E-3,7.3551065E-3,3.4559842E-2,4.343156E-2,5.0632756E-2,6.474426E-2,4.293419E-2,5.6622654E-2,3.504423E-2,6.5323494E-2,5.1621344E-2,7.415762E-2,8.941683E-2,9.74787E-2,6.8660736E-2,7.783327E-2,4.9840916E-2,9.435415E-2,8.429208E-2,1.000335E-1],"split_indices":[1,6,1,6,4,2,4,4,4,4,4,4,4,1,0,6,6,4,6,4,6,1,2,4,4,0,4,2,4,4,1,4,4,6,4,4,6,4,4,0,2,1,1,4,4,1,1,0,3,2,3,2,1,4,4,4,4,2,4,4,0,4,0,0,0,0,0,0,0,0,0,0,0,0,0,0,0,0,0,0,0,0,0,0,0,0,0,0,0,0,0,0,0,0,0,0,0,0,0,0,0,0,0,0,0,0,0,0,0,0,0,0,0,0,0,0,0,0,0,0,0,0,0],"split_type":[0,0,0,0,0,0,0,0,0,0,0,0,0,0,0,0,0,0,0,0,0,0,0,0,0,0,0,0,0,0,0,0,0,0,0,0,0,0,0,0,0,0,0,0,0,0,0,0,0,0,0,0,0,0,0,0,0,0,0,0,0,0,0,0,0,0,0,0,0,0,0,0,0,0,0,0,0,0,0,0,0,0,0,0,0,0,0,0,0,0,0,0,0,0,0,0,0,0,0,0,0,0,0,0,0,0,0,0,0,0,0,0,0,0,0,0,0,0,0,0,0,0,0],"sum_hessian":[3.5632E4,1.8175E4,1.7457E4,1.2516E4,5.659E3,6.946E3,1.0511E4,8.599E3,3.917E3,1.953E3,3.706E3,4.924E3,2.022E3,6.238E3,4.273E3,1.773E3,6.826E3,2.707E3,1.21E3,5.85E2,1.368E3,2.546E3,1.16E3,2.446E3,2.478E3,5.2E1,1.97E3,4.981E3,1.257E3,2.113E3,2.16E3,1.013E3,7.6E2,1.823E3,5.003E3,1.164E3,1.543E3,5.47E2,6.63E2,2.1E1,5.64E2,5.51E2,8.17E2,9.3E1,2.453E3,7.67E2,3.93E2,5.8E1,2.388E3,1.905E3,5.73E2,2.1E1,3.1E1,1.658E3,3.12E2,3.374E3,1.607E3,1.07E2,1.15E3,1.665E3,4.48E2,1.654E3,5.06E2,2.17E2,7.96E2,1.87E2,5.73E2,9.34E2,8.89E2,2.812E3,2.191E3,3.26E2,8.38E2,8.52E2,6.91E2,2.62E2,2.85E2,5.63E2,1E2,4.15E2,1.49E2,4.9E1,5.02E2,5.91E2,2.26E2,4.7E1,4.6E1,1.552E3,9.01E2,5.7E1,7.1E2,2.26E2,1.67E2,3.7E1,2.1E1,1.527E3,8.61E2,1.247E3,6.58E2,4.58E2,1.15E2,4E0,1.7E1,6E0,2.5E1,5.81E2,1.077E3,2.07E2,1.05E2,1.704E3,1.67E3,8.2E1,1.525E3,6.9E1,3.8E1,6.41E2,5.09E2,1.08E3,5.85E2,7E0,4.41E2,1.337E3,3.17E2],"tree_param":{"num_deleted":"0","num_feature":"7","num_nodes":"123","size_leaf_vector":"1"}},{"base_weights":[-3.901607E-5,-4.5034456E-1,4.732318E-1,-5.9629893E-1,-1.298951E-1,2.1889533E-1,6.3376206E-1,-7.0613986E-1,-5.147106E-1,-2.6408774E-1,-5.7777166E-2,1.4690779E-1,3.4558746E-1,5.5899733E-1,7.5517935E-1,-7.739402E-1,-6.085254E-1,-5.731876E-1,-3.8633525E-1,-3.576919E-1,-2.228117E-1,-1.0669616E-1,4.882625E-2,1.01154454E-1,2.5191554E-1,2.3843178E-1,3.9080995E-1,4.580685E-1,7.006746E-1,7.0087093E-1,8.549765E-1,-8.465876E-1,-7.14292E-1,-7.500306E-1,-5.408741E-1,-6.2925917E-1,-4.9785534E-1,-4.494353E-1,-3.1015345E-1,-5.459609E-1,-3.4319192E-1,-3.160023E-1,-1.7481086E-1,-2.532872E-1,-7.8802384E-2,-3.2724876E-2,1.5490688E-1,5.0066788E-2,1.8655972E-1,1.6888084E-1,3.5591957E-1,-9.391654E-2,2.6364434E-1,2.902115E-1,4.4426885E-1,3.9809564E-1,5.198204E-1,5.2898604E-1,7.604552E-1,5.6208473E-1,7.5925624E-1,5.93607E-1,8.684167E-1,-8.9240514E-2,-7.711128E-2,-9.117862E-2,-6.7643665E-2,-8.2034364E-2,-6.9765046E-2,-6.4477175E-2,-5.0064206E-2,-7.215025E-2,-5.674484E-2,-5.6536477E-2,-4.4149812E-2,-4.9726766E-2,-3.686063E-2,-3.7257176E-2,-2.5793841E-2,-6.2108576E-2,-4.112897E-2,-3.5807308E-2,-1.3139783E-2,-4.3025482E-2,-2.796802E-2,-2.221614E-2,-8.076782E-3,-3.998799E-2,-2.2331186E-2,-1.2486743E-2,-3.1754093E-3,-1.8437186E-2,-6.7697995E-4,9.604057E-3,2.6137635E-2,-4.6299263E-3,8.203928E-3,8.1697805E-3,2.2408387E-2,7.7757537E-3,2.2318367E-2,3.0150328E-2,4.4913895E-2,-2.5034888E-2,-5.5352836E-3,2.0023597E-2,3.207552E-2,1.5167527E-2,3.2112814E-2,4.1323114E-2,5.7196703E-2,1.7597254E-2,4.1663136E-2,4.080876E-2,5.4176856E-2,4.5018267E-2,5.953302E-2,6.857651E-2,8.299397E-2,3.6974978E-2,5.8248024E-2,6.6622265E-2,8.902358E-2,3.5298634E-2,6.398584E-2,7.794174E-2,8.932861E-2],"categories":[],"categories_nodes":[],"categories_segments":[],"categories_sizes":[],"default_left":[0,0,0,0,0,0,0,0,0,0,0,0,0,0,0,0,0,0,0,0,0,0,0,0,0,0,0,0,0,0,0,0,0,0,0,0,0,0,0,0,0,0,0,0,0,0,0,0,0,0,0,0,0,0,0,0,0,0,0,0,0,0,0,0,0,0,0,0,0,0,0,0,0,0,0,0,0,0,0,0,0,0,0,0,0,0,0,0,0,0,0,0,0,0,0,0,0,0,0,0,0,0,0,0,0,0,0,0,0,0,0,0,0,0,0,0,0,0,0,0,0,0,0,0,0,0,0],"id":5,"left_children":[1,3,5,7,9,11,13,15,17,19,21,23,25,27,29,31,33,35,37,39,41,43,45,47,49,51,53,55,57,59,61,63,65,67,69,71,73,75,77,79,81,83,85,87,89,91,93,95,97,99,101,103,105,107,109,111,113,115,117,119,121,123,125,-1,-1,-1,-1,-1,-1,-1,-1,-1,-1,-1,-1,-1,-1,-1,-1,-1,-1,-1,-1,-1,-1,-1,-1,-1,-1,-1,-1,-1,-1,-1,-1,-1,-1,-1,-1,-1,-1,-1,-1,-1,-1,-1,-1,-1,-1,-1,-1,-1,-1,-1,-1,-1,-1,-1,-1,-1,-1,-1,-1,-1,-1,-1,-1],"loss_changes":[7.6108154E3,8.558318E2,7.1077075E2,1.1231201E2,5.541857E1,6.1410645E1,9.647363E1,3.4976562E1,5.396411E1,7.655243E0,1.9441261E1,2.0628868E1,1.1735535E1,9.4197266E1,2.1432373E1,1.3075562E1,2.0654968E1,2.0625122E1,1.0734222E1,1.4806061E0,6.1714935E0,1.0427378E1,1.0152686E1,1.3062674E1,1.1201172E1,6.1165466E0,9.094116E0,1.4099426E1,2.7802246E1,2.0949219E1,4.5007324E0,4.215515E0,1.2391846E1,2.0389404E0,5.913788E0,1.57717285E1,7.816223E0,4.591507E0,3.2543259E0,1.694746E-1,1.7494354E0,1.838417E0,4.0832577E0,1.7035236E0,4.6513567E0,2.6122615E0,3.1713037E0,5.783872E0,4.392666E0,3.5800247E0,2.7965775E0,2.998383E-1,2.3837776E0,2.5125694E0,4.194809E0,8.012878E0,4.4382935E0,3.4596558E0,9.997314E0,2.8639984E0,2.199878E1,5.865574E-1,2.3051758E0,0E0,0E0,0E0,0E0,0E0,0E0,0E0,0E0,0E0,0E0,0E0,0E0,0E0,0E0,0E0,0E0,0E0,0E0,0E0,0E0,0E0,0E0,0E0,0E0,0E0,0E0,0E0,0E0,0E0,0E0,0E0,0E0,0E0,0E0,0E0,0E0,0E0,0E0,0E0,0E0,0E0,0E0,0E0,0E0,0E0,0E0,0E0,0E0,0E0,0E0,0E0,0E0,0E0,0E0,0E0,0E0,0E0,0E0,0E0,0E0,0E0,0E0,0E0,0E0],"parents":[2147483647,0,0,1,1,2,2,3,3,4,4,5,5,6,6,7,7,8,8,9,9,10,10,11,11,12,12,13,13,14,14,15,15,16,16,17,17,18,18,19,19,20,20,21,21,22,22,23,23,24,24,25,25,26,26,27,27,28,28,29,29,30,30,31,31,32,32,33,33,34,34,35,35,36,36,37,37,38,38,39,39,40,40,41,41,42,42,43,43,44,44,45,45,46,46,47,47,48,48,49,49,50,50,51,51,52,52,53,53,54,54,55,55,56,56,57,57,58,58,59,59,60,60,61,61,62,62],"right_children":[2,4,6,8,10,12,14,16,18,20,22,24,26,28,30,32,34,36,38,40,42,44,46,48,50,52,54,56,58,60,62,64,66,68,70,72,74,76,78,80,82,84,86,88,90,92,94,96,98,100,102,104,106,108,110,112,114,116,118,120,122,124,126,-1,-1,-1,-1,-1,-1,-1,-1,-1,-1,-1,-1,-1,-1,-1,-1,-1,-1,-1,-1,-1,-1,-1,-1,-1,-1,-1,-1,-1,-1,-1,-1,-1,-1,-1,-1,-1,-1,-1,-1,-1,-1,-1,-1,-1,-1,-1,-1,-1,-1,-1,-1,-1,-1,-1,-1,-1,-1,-1,-1,-1,-1,-1,-1],"split_conditions":[1.413558E2,7.581035E1,6.27E0,4.41E0,3E0,1.585214E2,6.76E0,5E0,5E0,2E0,5E0,4E0,2E0,3E0,7.25E0,4E0,4.750032E1,4.7E0,4E0,1E0,4E0,3E0,4E0,5E0,4E0,1E0,3E0,2E0,3E0,2E0,1E0,4E0,4.23E0,4.0413647E1,3E0,4E0,3E0,4.73E0,6.2488735E1,1.368538E2,1.038312E2,2E0,5.29E0,1E0,8.7169304E1,2E0,6E0,2E0,2E0,2E0,5E0,1.65606E2,6.14E0,1E0,4E0,1E0,2E0,2E0,4E0,1E0,3E0,2.416652E2,1E0,-8.9240514E-2,-7.711128E-2,-9.117862E-2,-6.7643665E-2,-8.2034364E-2,-6.9765046E-2,-6.4477175E-2,-5.0064206E-2,-7.215025E-2,-5.674484E-2,-5.6536477E-2,-4.4149812E-2,-4.9726766E-2,-3.686063E-2,-3.7257176E-2,-2.5793841E-2,-6.2108576E-2,-4.112897E-2,-3.5807308E-2,-1.3139783E-2,-4.3025482E-2,-2.796802E-2,-2.221614E-2,-8.076782E-3,-3.998799E-2,-2.2331186E-2,-1.2486743E-2,-3.1754093E-3,-1.8437186E-2,-6.7697995E-4,9.604057E-3,2.6137635E-2,-4.6299263E-3,8.203928E-3,8.1697805E-3,2.2408387E-2,7.7757537E-3,2.2318367E-2,3.0150328E-2,4.4913895E-2,-2.5034888E-2,-5.5352836E-3,2.0023597E-2,3.207552E-2,1.5167527E-2,3.2112814E-2,4.1323114E-2,5.7196703E-2,1.7597254E-2,4.1663136E-2,4.080876E-2,5.4176856E-2,4.5018267E-2,5.953302E-2,6.857651E-2,8.299397E-2,3.6974978E-2,5.8248024E-2,6.6622265E-2,8.902358E-2,3.5298634E-2,6.398584E-2,7.794174E-2,8.932861E-2],"split_indices":[2,3,0,6,4,2,0,4,4,4,4,4,4,4,0,5,3,6,5,4,5,5,5,5,5,4,5,4,5,4,4,4,6,3,5,5,4,6,3,2,3,5,6,5,3,5,4,4,4,5,4,2,0,5,4,4,5,5,4,4,5,3,5,0,0,0,0,0,0,0,0,0,0,0,0,0,0,0,0,0,0,0,0,0,0,0,0,0,0,0,0,0,0,0,0,0,0,0,0,0,0,0,0,0,0,0,0,0,0,0,0,0,0,0,0,0,0,0,0,0,0,0,0,0,0,0,0],"split_type":[0,0,0,0,0,0,0,0,0,0,0,0,0,0,0,0,0,0,0,0,0,0,0,0,0,0,0,0,0,0,0,0,0,0,0,0,0,0,0,0,0,0,0,0,0,0,0,0,0,0,0,0,0,0,0,0,0,0,0,0,0,0,0,0,0,0,0,0,0,0,0,0,0,0,0,0,0,0,0,0,0,0,0,0,0,0,0,0,0,0,0,0,0,0,0,0,0,0,0,0,0,0,0,0,0,0,0,0,0,0,0,0,0,0,0,0,0,0,0,0,0,0,0,0,0,0,0],"sum_hessian":[3.571E4,1.8299E4,1.7411E4,1.2572E4,5.727E3,6.738E3,1.0673E4,5.355E3,7.217E3,2.001E3,3.726E3,4.298E3,2.44E3,6.609E3,4.064E3,3.156E3,2.199E3,4.956E3,2.261E3,6.1E2,1.391E3,2.554E3,1.172E3,2.995E3,1.303E3,7.26E2,1.714E3,3.862E3,2.747E3,2.637E3,1.427E3,1.417E3,1.739E3,7.08E2,1.491E3,2.837E3,2.119E3,1.234E3,1.027E3,4.1E1,5.69E2,4.71E2,9.2E2,4.07E2,2.147E3,6.63E2,5.09E2,1.875E3,1.12E3,7.26E2,5.77E2,5.1E1,6.75E2,5.97E2,1.117E3,1.963E3,1.899E3,7.12E2,2.035E3,7.84E2,1.853E3,7.2E1,1.355E3,8.75E2,5.42E2,2.76E2,1.463E3,2.96E2,4.12E2,4.12E2,1.079E3,1.134E3,1.703E3,9.6E2,1.159E3,7.72E2,4.62E2,4.65E2,5.62E2,2.4E1,1.7E1,5.31E2,3.8E1,1.11E2,3.6E2,6.11E2,3.09E2,6.7E1,3.4E2,1.084E3,1.063E3,9.6E1,5.67E2,3.29E2,1.8E2,4.67E2,1.408E3,2.96E2,8.24E2,2.72E2,4.54E2,3.67E2,2.1E2,9E0,4.2E1,3.22E2,3.53E2,1.1E2,4.87E2,9.02E2,2.15E2,1.52E2,1.811E3,3.15E2,1.584E3,3.29E2,3.83E2,9.86E2,1.049E3,7.7E1,7.07E2,1.087E3,7.66E2,1.3E1,5.9E1,3.03E2,1.052E3],"tree_param":{"num_deleted":"0","num_feature":"7","num_nodes":"127","size_leaf_vector":"1"}},{"base_weights":[-6.010684E-4,-4.0634373E-1,4.2287582E-1,-5.387058E-1,-1.24836385E-1,1.9806905E-1,5.727137E-1,-6.035488E-1,-4.336202E-1,-1.9493909E-1,-9.620004E-3,1.4234336E-1,3.373118E-1,4.9732003E-1,6.794862E-1,-7.5503165E-1,-5.660863E-1,-5.092438E-1,-3.5476992E-1,-2.900377E-1,-1.5116955E-1,-7.460066E-2,6.548949E-2,1.4524292E-2,1.7332907E-1,-8.790034E-3,3.4697E-1,4.3722335E-1,7.309734E-1,6.231438E-1,7.4045414E-1,-8.1818575E-1,-6.9011766E-1,-7.295151E-1,-5.3012204E-1,-6.215779E-1,-4.856653E-1,-5.216867E-1,-3.276239E-1,-3.545225E-1,-2.4857676E-1,-3.039177E-1,-1.2054672E-1,-2.746104E-1,-5.2745514E-2,2.9036148E-2,2.2374728E-1,-3.6428845E-1,3.8520593E-2,7.391425E-2,2.1649392E-1,-6.416437E-2,6.540867E-2,3.1211758E-1,4.1311336E-1,3.8177517E-1,4.95166E-1,4.808114E-1,7.541698E-1,4.6071437E-1,6.694746E-1,6.815288E-1,8.2273245E-1,-8.9134805E-2,-7.9876564E-2,-8.148534E-2,-6.470943E-2,-8.403861E-2,-6.712499E-2,-7.528686E-2,-5.0579578E-2,-6.899153E-2,-5.706495E-2,-6.069672E-2,-4.614192E-2,-5.8663692E-2,-4.7166046E-2,-3.649375E-2,-2.5600035E-2,-4.906618E-2,-3.3395983E-2,-3.806972E-2,-2.2366231E-2,-3.9932597E-2,-2.7455186E-2,-2.5077999E-2,-9.826868E-3,-4.0812097E-2,-2.1427529E-2,-1.816004E-2,-3.4004212E-3,3.9801747E-4,1.6661717E-2,1.3566009E-2,4.0483747E-2,-4.0365975E-2,-1.9695252E-2,-5.67455E-4,9.856316E-3,-6.031387E-3,1.031899E-2,1.7649768E-2,3.0010408E-2,3.0622005E-3,-1.02586085E-2,-1.1654473E-2,7.838684E-3,2.1052847E-2,3.412385E-2,3.3824947E-2,4.9374077E-2,1.7479166E-2,4.0051546E-2,4.6412792E-2,5.877601E-2,4.0730596E-2,5.9278853E-2,6.7844085E-2,7.90508E-2,2.733149E-2,4.9138594E-2,6.287589E-2,7.914865E-2,5.9304375E-2,8.138529E-2,7.712328E-2,8.6552136E-2],"categories":[],"categories_nodes":[],"categories_segments":[],"categories_sizes":[],"default_left":[0,0,0,0,0,0,0,0,0,0,0,0,0,0,0,0,0,0,0,0,0,0,0,0,0,0,0,0,0,0,0,0,0,0,0,0,0,0,0,0,0,0,0,0,0,0,0,0,0,0,0,0,0,0,0,0,0,0,0,0,0,0,0,0,0,0,0,0,0,0,0,0,0,0,0,0,0,0,0,0,0,0,0,0,0,0,0,0,0,0,0,0,0,0,0,0,0,0,0,0,0,0,0,0,0,0,0,0,0,0,0,0,0,0,0,0,0,0,0,0,0,0,0,0,0,0,0],"id":6,"left_children":[1,3,5,7,9,11,13,15,17,19,21,23,25,27,29,31,33,35,37,39,41,43,45,47,49,51,53,55,57,59,61,63,65,67,69,71,73,75,77,79,81,83,85,87,89,91,93,95,97,99,101,103,105,107,109,111,113,115,117,119,121,123,125,-1,-1,-1,-1,-1,-1,-1,-1,-1,-1,-1,-1,-1,-1,-1,-1,-1,-1,-1,-1,-1,-1,-1,-1,-1,-1,-1,-1,-1,-1,-1,-1,-1,-1,-1,-1,-1,-1,-1,-1,-1,-1,-1,-1,-1,-1,-1,-1,-1,-1,-1,-1,-1,-1,-1,-1,-1,-1,-1,-1,-1,-1,-1,-1],"loss_changes":[6.113965E3,6.770381E2,5.8636816E2,8.3960205E1,4.6949608E1,5.3996185E1,8.37605E1,4.2934814E1,2.7964478E1,1.49991455E1,1.0742347E1,1.9705254E1,6.65506E0,8.571448E1,1.4381714E1,5.633911E0,3.5643066E1,6.0734863E0,1.0314087E1,2.9544296E0,1.1549732E1,5.1435814E0,5.8836784E0,8.849613E0,1.7170357E1,2.3017563E-1,4.33403E0,1.5476624E1,6.902527E0,1.6638977E1,9.47522E0,3.6923218E-1,3.5083618E0,6.561157E0,2.6863892E1,1.0471649E0,5.584503E0,7.6956177E-1,5.2329407E0,1.0762672E0,2.205883E0,1.0474854E0,5.966633E0,8.469734E-1,2.5657024E0,2.8639812E0,2.9918594E0,3.0261564E-1,2.4285939E0,4.776777E0,9.283737E0,1.1968075E-1,6.580975E-2,3.6912155E0,3.8470001E0,9.611786E0,6.5700684E0,6.557236E-1,2.6117554E0,2.7568665E0,8.195923E0,1.3708252E1,1.2254028E0,0E0,0E0,0E0,0E0,0E0,0E0,0E0,0E0,0E0,0E0,0E0,0E0,0E0,0E0,0E0,0E0,0E0,0E0,0E0,0E0,0E0,0E0,0E0,0E0,0E0,0E0,0E0,0E0,0E0,0E0,0E0,0E0,0E0,0E0,0E0,0E0,0E0,0E0,0E0,0E0,0E0,0E0,0E0,0E0,0E0,0E0,0E0,0E0,0E0,0E0,0E0,0E0,0E0,0E0,0E0,0E0,0E0,0E0,0E0,0E0,0E0,0E0,0E0,0E0],"parents":[2147483647,0,0,1,1,2,2,3,3,4,4,5,5,6,6,7,7,8,8,9,9,10,10,11,11,12,12,13,13,14,14,15,15,16,16,17,17,18,18,19,19,20,20,21,21,22,22,23,23,24,24,25,25,26,26,27,27,28,28,29,29,30,30,31,31,32,32,33,33,34,34,35,35,36,36,37,37,38,38,39,39,40,40,41,41,42,42,43,43,44,44,45,45,46,46,47,47,48,48,49,49,50,50,51,51,52,52,53,53,54,54,55,55,56,56,57,57,58,58,59,59,60,60,61,61,62,62],"right_children":[2,4,6,8,10,12,14,16,18,20,22,24,26,28,30,32,34,36,38,40,42,44,46,48,50,52,54,56,58,60,62,64,66,68,70,72,74,76,78,80,82,84,86,88,90,92,94,96,98,100,102,104,106,108,110,112,114,116,118,120,122,124,126,-1,-1,-1,-1,-1,-1,-1,-1,-1,-1,-1,-1,-1,-1,-1,-1,-1,-1,-1,-1,-1,-1,-1,-1,-1,-1,-1,-1,-1,-1,-1,-1,-1,-1,-1,-1,-1,-1,-1,-1,-1,-1,-1,-1,-1,-1,-1,-1,-1,-1,-1,-1,-1,-1,-1,-1,-1,-1,-1,-1,-1,-1,-1,-1],"split_conditions":[7E-1,4.5E-1,9.9E-1,4.54E0,4E0,9E-1,3E0,3E0,4E0,4E0,4E0,2E0,1E0,1.39E0,1.970596E2,5E0,3E-1,3E0,2E0,5.18E0,2E0,1.150008E2,6E0,1E0,3E0,4E0,3E0,2E0,1E0,3E0,3E0,2E0,2E0,5E0,2E0,4.68E0,2E0,5E0,6E0,4.9E-1,2E0,8.235213E1,5.08E0,2E0,2E0,5.9E-1,6E0,1.542036E2,7.4E-1,1E0,4E0,2E0,1.65606E2,3E0,3E0,1E0,1.18E0,2.50683E2,2E0,1E0,5E0,1.4E0,4E0,-8.9134805E-2,-7.9876564E-2,-8.148534E-2,-6.470943E-2,-8.403861E-2,-6.712499E-2,-7.528686E-2,-5.0579578E-2,-6.899153E-2,-5.706495E-2,-6.069672E-2,-4.614192E-2,-5.8663692E-2,-4.7166046E-2,-3.649375E-2,-2.5600035E-2,-4.906618E-2,-3.3395983E-2,-3.806972E-2,-2.2366231E-2,-3.9932597E-2,-2.7455186E-2,-2.5077999E-2,-9.826868E-3,-4.0812097E-2,-2.1427529E-2,-1.816004E-2,-3.4004212E-3,3.9801747E-4,1.6661717E-2,1.3566009E-2,4.0483747E-2,-4.0365975E-2,-1.9695252E-2,-5.67455E-4,9.856316E-3,-6.031387E-3,1.031899E-2,1.7649768E-2,3.0010408E-2,3.0622005E-3,-1.02586085E-2,-1.1654473E-2,7.838684E-3,2.1052847E-2,3.412385E-2,3.3824947E-2,4.9374077E-2,1.7479166E-2,4.0051546E-2,4.6412792E-2,5.877601E-2,4.0730596E-2,5.9278853E-2,6.7844085E-2,7.90508E-2,2.733149E-2,4.9138594E-2,6.287589E-2,7.914865E-2,5.9304375E-2,8.138529E-2,7.712328E-2,8.6552136E-2],"split_indices":[1,1,1,6,4,1,4,4,4,5,5,4,4,1,2,5,1,5,5,6,4,2,4,4,5,5,4,4,4,5,5,4,4,4,5,6,4,4,4,1,4,3,6,5,5,1,5,2,1,5,4,5,2,5,5,4,1,2,5,5,4,1,4,0,0,0,0,0,0,0,0,0,0,0,0,0,0,0,0,0,0,0,0,0,0,0,0,0,0,0,0,0,0,0,0,0,0,0,0,0,0,0,0,0,0,0,0,0,0,0,0,0,0,0,0,0,0,0,0,0,0,0,0,0,0,0,0],"split_type":[0,0,0,0,0,0,0,0,0,0,0,0,0,0,0,0,0,0,0,0,0,0,0,0,0,0,0,0,0,0,0,0,0,0,0,0,0,0,0,0,0,0,0,0,0,0,0,0,0,0,0,0,0,0,0,0,0,0,0,0,0,0,0,0,0,0,0,0,0,0,0,0,0,0,0,0,0,0,0,0,0,0,0,0,0,0,0,0,0,0,0,0,0,0,0,0,0,0,0,0,0,0,0,0,0,0,0,0,0,0,0,0,0,0,0,0,0,0,0,0,0,0,0,0,0,0,0],"sum_hessian":[3.5581E4,1.8171E4,1.741E4,1.2359E4,5.812E3,6.964E3,1.0446E4,7.64E3,4.719E3,3.613E3,2.199E3,4.975E3,1.989E3,6.126E3,4.32E3,1.511E3,6.129E3,2.406E3,2.313E3,1.137E3,2.476E3,1.179E3,1.02E3,9.71E2,4.004E3,5.4E1,1.935E3,4.875E3,1.251E3,2.251E3,2.069E3,7.6E2,7.51E2,1.102E3,5.027E3,4.13E2,1.993E3,3.21E2,1.992E3,4.42E2,6.95E2,4.12E2,2.064E3,1.15E2,1.064E3,8.3E2,1.9E2,5.7E1,9.14E2,1.213E3,2.791E3,3.1E1,2.3E1,1.271E3,6.64E2,2.495E3,2.38E3,1.08E2,1.143E3,5.02E2,1.749E3,1.211E3,8.58E2,1.5E2,6.1E2,1.88E2,5.63E2,3.75E2,7.27E2,4.92E2,4.535E3,1.71E2,2.42E2,3.28E2,1.665E3,1.35E2,1.86E2,1.307E3,6.85E2,5.5E1,3.87E2,1.08E2,5.87E2,9.4E1,3.18E2,3E2,1.764E3,3.4E1,8.1E1,1.34E2,9.3E2,7.03E2,1.27E2,1.29E2,6.1E1,4.5E1,1.2E1,5.27E2,3.87E2,2.17E2,9.96E2,1.89E3,9.01E2,9E0,2.2E1,1E0,2.2E1,2.85E2,9.86E2,3.47E2,3.17E2,2.08E2,2.287E3,1.787E3,5.93E2,6.8E1,4E1,3.77E2,7.66E2,7.2E1,4.3E2,1.316E3,4.33E2,7.29E2,4.82E2,3.98E2,4.6E2],"tree_param":{"num_deleted":"0","num_feature":"7","num_nodes":"127","size_leaf_vector":"1"}},{"base_weights":[-2.4591995E-4,-3.7747812E-1,3.7163326E-1,-4.9266517E-1,-1.3801165E-1,1.7538492E-1,5.218924E-1,-5.7378745E-1,-4.270849E-1,-2.4691585E-1,-8.2437724E-2,1.0213001E-1,2.8597757E-1,4.560633E-1,6.1523765E-1,-6.322003E-1,-4.893736E-1,-4.7655344E-1,-3.1693354E-1,-4.0438545E-1,-2.2418246E-1,-2.5360867E-1,-5.2822065E-2,3.7596356E-2,1.5744795E-1,2.027581E-1,3.204935E-1,4.0044296E-1,6.556462E-1,5.623409E-1,6.677667E-1,-6.781776E-1,-5.622377E-1,-6.0767215E-1,-4.3017283E-1,-5.48114E-1,-4.300259E-1,-3.7476045E-1,-2.4986398E-1,-3.147483E-1,-4.4230282E-1,-2.5203204E-1,-1.23665035E-1,-4.0199068E-1,-2.2957778E-1,-9.131074E-2,3.4917083E-2,-3.312876E-1,4.700579E-2,9.050377E-2,2.2864239E-1,-4.4198826E-2,2.1742052E-1,1.8915966E-1,3.4635568E-1,3.509315E-1,4.5159212E-1,4.296346E-1,6.7514545E-1,5.3141165E-1,7.080744E-1,6.305742E-1,7.5746894E-1,-7.534727E-2,-6.477824E-2,-7.5792395E-2,-5.3114492E-2,-6.763342E-2,-5.601362E-2,-6.142133E-2,-4.1252017E-2,-6.0571503E-2,-4.7587786E-2,-5.1613282E-2,-3.635365E-2,-4.7301132E-2,-3.485586E-2,-2.7087955E-2,-1.5861588E-2,-3.287277E-2,-2.2935888E-2,-5.0840147E-2,-4.164403E-2,-3.2288324E-2,-2.2157079E-2,-2.1493329E-2,-8.965588E-3,-2.8445015E-2,-4.2359572E-2,-2.813496E-2,-1.6776722E-2,-2.2811867E-2,-6.8544643E-3,-6.020757E-4,1.7449638E-2,-3.729247E-2,-1.3462215E-2,-1.1824698E-2,6.115587E-3,1.9619064E-3,1.2968241E-2,1.9641047E-2,3.5456862E-2,-1.00184595E-2,3.669925E-3,1.0907356E-2,2.4585655E-2,9.82192E-3,2.2882702E-2,3.3242073E-2,5.135894E-2,3.000011E-2,4.0667664E-2,4.2351227E-2,5.3183682E-2,3.3494513E-2,5.0819762E-2,5.4567017E-2,6.927859E-2,4.3587156E-2,5.8217265E-2,6.038035E-2,7.462182E-2,5.4850806E-2,6.856523E-2,7.302011E-2,8.251877E-2],"categories":[],"categories_nodes":[],"categories_segments":[],"categories_sizes":[],"default_left":[0,0,0,0,0,0,0,0,0,0,0,0,0,0,0,0,0,0,0,0,0,0,0,0,0,0,0,0,0,0,0,0,0,0,0,0,0,0,0,0,0,0,0,0,0,0,0,0,0,0,0,0,0,0,0,0,0,0,0,0,0,0,0,0,0,0,0,0,0,0,0,0,0,0,0,0,0,0,0,0,0,0,0,0,0,0,0,0,0,0,0,0,0,0,0,0,0,0,0,0,0,0,0,0,0,0,0,0,0,0,0,0,0,0,0,0,0,0,0,0,0,0,0,0,0,0,0],"id":7,"left_children":[1,3,5,7,9,11,13,15,17,19,21,23,25,27,29,31,33,35,37,39,41,43,45,47,49,51,53,55,57,59,61,63,65,67,69,71,73,75,77,79,81,83,85,87,89,91,93,95,97,99,101,103,105,107,109,111,113,115,117,119,121,123,125,-1,-1,-1,-1,-1,-1,-1,-1,-1,-1,-1,-1,-1,-1,-1,-1,-1,-1,-1,-1,-1,-1,-1,-1,-1,-1,-1,-1,-1,-1,-1,-1,-1,-1,-1,-1,-1,-1,-1,-1,-1,-1,-1,-1,-1,-1,-1,-1,-1,-1,-1,-1,-1,-1,-1,-1,-1,-1,-1,-1,-1,-1,-1,-1],"loss_changes":[5.0060635E3,4.885725E2,5.298096E2,6.3387695E1,3.481025E1,6.311351E1,6.2255615E1,2.6041016E1,3.5910645E1,6.8685074E0,1.931093E1,1.673676E1,8.853821E0,6.603186E1,1.1311401E1,9.767456E0,1.5075928E1,1.4963745E1,7.87265E0,6.90094E-1,4.7305527E0,1.9116669E0,1.0981697E1,7.5337358E0,1.2013599E1,3.3155708E0,7.3831787E0,1.1675781E1,5.439087E0,9.098328E0,6.545105E0,3.8579712E0,7.245575E0,1.9972839E0,4.499634E0,7.180542E0,1.567688E1,2.6694946E0,1.7864532E0,1.5324593E-2,7.718277E-2,2.8010483E0,1.1322975E0,7.504749E-2,1.5080223E0,7.023321E0,5.6694136E0,3.919797E-1,4.9481435E0,3.6161041E0,4.8943214E0,2.3919204E-1,2.628971E0,1.2869997E0,4.0962067E0,6.632263E0,4.945984E0,6.183243E-1,2.3513794E0,8.175049E0,1.0011444E0,6.376831E0,5.2752686E-1,0E0,0E0,0E0,0E0,0E0,0E0,0E0,0E0,0E0,0E0,0E0,0E0,0E0,0E0,0E0,0E0,0E0,0E0,0E0,0E0,0E0,0E0,0E0,0E0,0E0,0E0,0E0,0E0,0E0,0E0,0E0,0E0,0E0,0E0,0E0,0E0,0E0,0E0,0E0,0E0,0E0,0E0,0E0,0E0,0E0,0E0,0E0,0E0,0E0,0E0,0E0,0E0,0E0,0E0,0E0,0E0,0E0,0E0,0E0,0E0,0E0,0E0,0E0,0E0],"parents":[2147483647,0,0,1,1,2,2,3,3,4,4,5,5,6,6,7,7,8,8,9,9,10,10,11,11,12,12,13,13,14,14,15,15,16,16,17,17,18,18,19,19,20,20,21,21,22,22,23,23,24,24,25,25,26,26,27,27,28,28,29,29,30,30,31,31,32,32,33,33,34,34,35,35,36,36,37,37,38,38,39,39,40,40,41,41,42,42,43,43,44,44,45,45,46,46,47,47,48,48,49,49,50,50,51,51,52,52,53,53,54,54,55,55,56,56,57,57,58,58,59,59,60,60,61,61,62,62],"right_children":[2,4,6,8,10,12,14,16,18,20,22,24,26,28,30,32,34,36,38,40,42,44,46,48,50,52,54,56,58,60,62,64,66,68,70,72,74,76,78,80,82,84,86,88,90,92,94,96,98,100,102,104,106,108,110,112,114,116,118,120,122,124,126,-1,-1,-1,-1,-1,-1,-1,-1,-1,-1,-1,-1,-1,-1,-1,-1,-1,-1,-1,-1,-1,-1,-1,-1,-1,-1,-1,-1,-1,-1,-1,-1,-1,-1,-1,-1,-1,-1,-1,-1,-1,-1,-1,-1,-1,-1,-1,-1,-1,-1,-1,-1,-1,-1,-1,-1,-1,-1,-1,-1,-1,-1,-1,-1],"split_conditions":[6.1E-1,4.85E0,1.799728E2,4.41E0,3E0,5.94E0,3E0,5E0,5E0,5E-1,5E-1,3E0,2E0,1.36E0,4E0,5E0,3E-1,4E0,4E0,4.87E0,6E0,2E0,5E0,1E0,4E0,1E0,2E0,2E0,1E0,2.203184E2,4E0,3E0,2.9E-1,2.5E-1,2E0,4.66E0,3E0,2E0,6E0,6E0,1.064658E2,2E0,2E0,4.85E0,5E0,3E0,5E0,5.76E0,7E-1,2E0,5E0,4E0,8.7E-1,9E-1,5E0,1.92928E2,1.18E0,2.401912E2,1E0,3E0,1E0,6.66E0,1.08E0,-7.534727E-2,-6.477824E-2,-7.5792395E-2,-5.3114492E-2,-6.763342E-2,-5.601362E-2,-6.142133E-2,-4.1252017E-2,-6.0571503E-2,-4.7587786E-2,-5.1613282E-2,-3.635365E-2,-4.7301132E-2,-3.485586E-2,-2.7087955E-2,-1.5861588E-2,-3.287277E-2,-2.2935888E-2,-5.0840147E-2,-4.164403E-2,-3.2288324E-2,-2.2157079E-2,-2.1493329E-2,-8.965588E-3,-2.8445015E-2,-4.2359572E-2,-2.813496E-2,-1.6776722E-2,-2.2811867E-2,-6.8544643E-3,-6.020757E-4,1.7449638E-2,-3.729247E-2,-1.3462215E-2,-1.1824698E-2,6.115587E-3,1.9619064E-3,1.2968241E-2,1.9641047E-2,3.5456862E-2,-1.00184595E-2,3.669925E-3,1.0907356E-2,2.4585655E-2,9.82192E-3,2.2882702E-2,3.3242073E-2,5.135894E-2,3.000011E-2,4.0667664E-2,4.2351227E-2,5.3183682E-2,3.3494513E-2,5.0819762E-2,5.4567017E-2,6.927859E-2,4.3587156E-2,5.8217265E-2,6.038035E-2,7.462182E-2,5.4850806E-2,6.856523E-2,7.302011E-2,8.251877E-2],"split_indices":[1,6,2,6,4,0,4,4,4,1,1,4,4,1,4,5,1,5,5,0,5,5,4,4,5,4,5,4,4,2,5,4,1,1,5,6,4,5,5,5,2,4,4,0,4,5,5,0,1,5,4,5,1,1,4,2,1,2,5,5,5,0,1,0,0,0,0,0,0,0,0,0,0,0,0,0,0,0,0,0,0,0,0,0,0,0,0,0,0,0,0,0,0,0,0,0,0,0,0,0,0,0,0,0,0,0,0,0,0,0,0,0,0,0,0,0,0,0,0,0,0,0,0,0,0,0,0],"split_type":[0,0,0,0,0,0,0,0,0,0,0,0,0,0,0,0,0,0,0,0,0,0,0,0,0,0,0,0,0,0,0,0,0,0,0,0,0,0,0,0,0,0,0,0,0,0,0,0,0,0,0,0,0,0,0,0,0,0,0,0,0,0,0,0,0,0,0,0,0,0,0,0,0,0,0,0,0,0,0,0,0,0,0,0,0,0,0,0,0,0,0,0,0,0,0,0,0,0,0,0,0,0,0,0,0,0,0,0,0,0,0,0,0,0,0,0,0,0,0,0,0,0,0,0,0,0,0],"sum_hessian":[3.5683E4,1.7714E4,1.7969E4,1.196E4,5.754E3,7.793E3,1.0176E4,5.343E3,6.617E3,1.943E3,3.811E3,4.689E3,3.104E3,5.971E3,4.205E3,3.154E3,2.189E3,4.564E3,2.053E3,2.43E2,1.7E3,5.61E2,3.25E3,2.165E3,2.524E3,9.12E2,2.192E3,4.672E3,1.299E3,2.101E3,2.104E3,1.898E3,1.256E3,7.27E2,1.462E3,1.794E3,2.77E3,1.1E3,9.53E2,7.5E1,1.68E2,1.33E3,3.7E2,7.6E1,4.85E2,2.259E3,9.91E2,5.3E1,2.112E3,1.302E3,1.222E3,5.1E1,8.61E2,3.62E2,1.83E3,2.378E3,2.294E3,1.05E2,1.194E3,1.737E3,3.64E2,1.493E3,6.11E2,5.39E2,1.359E3,1.69E2,1.087E3,2.92E2,4.35E2,1.25E2,1.337E3,9.94E2,8E2,1.204E3,1.566E3,2.28E2,8.72E2,7.73E2,1.8E2,6.2E1,1.3E1,4.2E1,1.26E2,3.97E2,9.33E2,9.9E1,2.71E2,1.4E1,6.2E1,2.62E2,2.23E2,3.21E2,1.938E3,7.67E2,2.24E2,4.3E1,1E1,1.66E2,1.946E3,4.64E2,8.38E2,9.75E2,2.47E2,3E1,2.1E1,1.8E2,6.81E2,1.11E2,2.51E2,1.692E3,1.38E2,1.246E3,1.132E3,1.704E3,5.9E2,5E1,5.5E1,1.47E2,1.047E3,6.06E2,1.131E3,1.02E2,2.62E2,6.04E2,8.89E2,4.44E2,1.67E2],"tree_param":{"num_deleted":"0","num_feature":"7","num_nodes":"127","size_leaf_vector":"1"}},{"base_weights":[-8.090547E-4,-3.3085877E-1,3.442094E-1,-4.3418226E-1,-9.376164E-2,1.6651072E-1,4.6880063E-1,-4.9013662E-1,-3.4064153E-1,-1.5146126E-1,2.5979804E-3,1.03435926E-1,2.5697616E-1,4.097048E-1,5.54167E-1,-5.250704E-1,-3.6880046E-1,-4.016308E-1,-2.7675262E-1,-2.642383E-1,-1.2960757E-1,-4.3074995E-2,5.472565E-2,-1.3817876E-2,1.2877478E-1,1.6892631E-1,2.947579E-1,3.5513932E-1,5.7527316E-1,5.298348E-1,6.52059E-1,-6.157537E-1,-4.933929E-1,-5.316539E-1,-3.3189622E-1,-5.0303185E-1,-3.823041E-1,-3.0718684E-1,-2.2048296E-1,-5.3548794E-2,-2.5682637E-1,-2.0750497E-1,-1.12594835E-1,-8.456064E-2,-5.306014E-3,1.9863695E-3,9.243305E-2,-3.176603E-1,5.914945E-3,9.579305E-2,1.8708521E-1,-8.6290784E-2,1.9186398E-1,2.809414E-1,4.5319855E-1,1.3196193E-1,3.6464837E-1,4.8034117E-1,6.022404E-1,4.789002E-1,5.9634405E-1,3.512842E-1,6.567889E-1,-7.034595E-2,-5.8992304E-2,-5.9403867E-2,-4.569335E-2,-5.841138E-2,-4.6967182E-2,-3.639057E-2,-2.8094346E-2,3.2079697E-2,-5.0600495E-2,-4.130509E-2,-3.2748196E-2,-3.42985E-2,-2.6509294E-2,-2.6400197E-2,-1.8957218E-2,-4.2391296E-2,-2.5035191E-2,-3.5623875E-2,-1.9228725E-2,-1.4743577E-2,-8.41114E-3,-2.3310836E-2,-7.188093E-3,-4.9027945E-3,1.4333024E-3,-1.8417574E-3,2.6350075E-3,7.5769983E-3,1.7953515E-2,-3.444606E-2,-1.8673316E-2,-1.6813995E-3,5.183125E-3,6.7497613E-3,1.3922284E-2,1.6741376E-2,2.6533917E-2,-3.2250516E-2,-6.070562E-3,1.3596683E-2,2.3376493E-2,2.3145659E-2,3.212163E-2,4.012979E-2,5.1884007E-2,6.8111243E-3,2.0374553E-2,3.2984216E-2,4.1118443E-2,4.393108E-2,5.3848065E-2,4.0167816E-2,6.2069535E-2,4.407554E-2,5.0929487E-2,5.6441475E-2,6.674726E-2,4.3695364E-2,1.4995448E-2,6.194348E-2,6.7609794E-2],"categories":[],"categories_nodes":[],"categories_segments":[],"categories_sizes":[],"default_left":[0,0,0,0,0,0,0,0,0,0,0,0,0,0,0,0,0,0,0,0,0,0,0,0,0,0,0,0,0,0,0,0,0,0,0,0,0,0,0,0,0,0,0,0,0,0,0,0,0,0,0,0,0,0,0,0,0,0,0,0,0,0,0,0,0,0,0,0,0,0,0,0,0,0,0,0,0,0,0,0,0,0,0,0,0,0,0,0,0,0,0,0,0,0,0,0,0,0,0,0,0,0,0,0,0,0,0,0,0,0,0,0,0,0,0,0,0,0,0,0,0,0,0,0,0],"id":8,"left_children":[1,3,5,7,9,11,13,15,17,19,21,23,25,27,29,31,33,35,37,39,41,43,45,47,49,51,53,55,57,59,61,63,65,67,69,71,73,75,77,-1,79,81,83,85,87,89,91,93,95,97,99,101,103,105,107,109,111,113,115,117,119,121,123,-1,-1,-1,-1,-1,-1,-1,-1,-1,-1,-1,-1,-1,-1,-1,-1,-1,-1,-1,-1,-1,-1,-1,-1,-1,-1,-1,-1,-1,-1,-1,-1,-1,-1,-1,-1,-1,-1,-1,-1,-1,-1,-1,-1,-1,-1,-1,-1,-1,-1,-1,-1,-1,-1,-1,-1,-1,-1,-1,-1,-1,-1],"loss_changes":[4.0622002E3,4.4660132E2,3.860603E2,6.629443E1,3.0774517E1,4.1000183E1,5.1492188E1,3.347473E1,1.8420837E1,8.498177E0,4.94019E0,1.25932045E1,9.773895E0,5.4561768E1,9.637085E0,1.7405762E1,1.0515305E1,4.571808E0,3.9155884E0,9.9035263E-1,3.8225021E0,1.7325103E0,1.9268291E0,4.522613E0,6.6843605E0,5.2208366E0,4.393158E0,9.633423E0,3.5533447E0,1.1103577E1,9.5007324E-1,3.1917114E0,1.6512817E1,7.889252E-1,2.2675629E0,1.1077499E0,3.3134766E0,2.179947E0,1.0530205E0,0E0,4.8669434E-1,1.1061993E0,2.3534565E0,9.7587013E-1,4.9872354E-1,2.0181713E-1,8.064313E-1,9.708691E-2,7.408044E-1,2.7285137E0,1.8921051E0,4.276473E-1,1.8794079E0,3.7163239E0,3.5051346E-1,8.4780765E-1,6.9506836E0,5.6733704E-1,4.062744E0,1.9888E0,2.925415E0,1.931938E-1,1.6973877E-1,0E0,0E0,0E0,0E0,0E0,0E0,0E0,0E0,0E0,0E0,0E0,0E0,0E0,0E0,0E0,0E0,0E0,0E0,0E0,0E0,0E0,0E0,0E0,0E0,0E0,0E0,0E0,0E0,0E0,0E0,0E0,0E0,0E0,0E0,0E0,0E0,0E0,0E0,0E0,0E0,0E0,0E0,0E0,0E0,0E0,0E0,0E0,0E0,0E0,0E0,0E0,0E0,0E0,0E0,0E0,0E0,0E0,0E0,0E0,0E0,0E0,0E0],"parents":[2147483647,0,0,1,1,2,2,3,3,4,4,5,5,6,6,7,7,8,8,9,9,10,10,11,11,12,12,13,13,14,14,15,15,16,16,17,17,18,18,19,19,20,20,21,21,22,22,23,23,24,24,25,25,26,26,27,27,28,28,29,29,30,30,31,31,32,32,33,33,34,34,35,35,36,36,37,37,38,38,40,40,41,41,42,42,43,43,44,44,45,45,46,46,47,47,48,48,49,49,50,50,51,51,52,52,53,53,54,54,55,55,56,56,57,57,58,58,59,59,60,60,61,61,62,62],"right_children":[2,4,6,8,10,12,14,16,18,20,22,24,26,28,30,32,34,36,38,40,42,44,46,48,50,52,54,56,58,60,62,64,66,68,70,72,74,76,78,-1,80,82,84,86,88,90,92,94,96,98,100,102,104,106,108,110,112,114,116,118,120,122,124,-1,-1,-1,-1,-1,-1,-1,-1,-1,-1,-1,-1,-1,-1,-1,-1,-1,-1,-1,-1,-1,-1,-1,-1,-1,-1,-1,-1,-1,-1,-1,-1,-1,-1,-1,-1,-1,-1,-1,-1,-1,-1,-1,-1,-1,-1,-1,-1,-1,-1,-1,-1,-1,-1,-1,-1,-1,-1,-1,-1,-1,-1],"split_conditions":[7E-1,5E0,6.31E0,4.56E0,4E0,8E-1,3E0,6E0,4E0,2E0,8.870272E1,2E0,2E0,2.180644E2,5E0,3E0,3E-1,2E0,6E0,5E0,5.11E0,5E0,5E0,1E0,4E0,1E0,5E0,1E0,1.49E0,1.16E0,1.580278E2,2E0,4.29E0,2.6E-1,7E0,5.6596996E1,4.78E0,4.76E0,4.74E0,-5.3548794E-2,1E0,5E-1,3E0,5E-1,5.11E0,5.8E-1,7E0,5.69E0,1.1947362E2,1.1782713E2,6E0,5.83E0,6.14E0,6.14E0,6E0,6.61E0,1.7611116E2,2E0,1E0,1.664582E2,1.4E0,6.38E0,1.03E0,-7.034595E-2,-5.8992304E-2,-5.9403867E-2,-4.569335E-2,-5.841138E-2,-4.6967182E-2,-3.639057E-2,-2.8094346E-2,3.2079697E-2,-5.0600495E-2,-4.130509E-2,-3.2748196E-2,-3.42985E-2,-2.6509294E-2,-2.6400197E-2,-1.8957218E-2,-4.2391296E-2,-2.5035191E-2,-3.5623875E-2,-1.9228725E-2,-1.4743577E-2,-8.41114E-3,-2.3310836E-2,-7.188093E-3,-4.9027945E-3,1.4333024E-3,-1.8417574E-3,2.6350075E-3,7.5769983E-3,1.7953515E-2,-3.444606E-2,-1.8673316E-2,-1.6813995E-3,5.183125E-3,6.7497613E-3,1.3922284E-2,1.6741376E-2,2.6533917E-2,-3.2250516E-2,-6.070562E-3,1.3596683E-2,2.3376493E-2,2.3145659E-2,3.212163E-2,4.012979E-2,5.1884007E-2,6.8111243E-3,2.0374553E-2,3.2984216E-2,4.1118443E-2,4.393108E-2,5.3848065E-2,4.0167816E-2,6.2069535E-2,4.407554E-2,5.0929487E-2,5.6441475E-2,6.674726E-2,4.3695364E-2,1.4995448E-2,6.194348E-2,6.7609794E-2],"split_indices":[1,0,0,6,4,1,4,4,4,4,3,4,4,2,4,4,1,4,4,6,6,4,4,4,4,4,4,4,1,1,3,4,6,1,4,3,6,6,6,0,4,1,4,1,6,1,4,0,3,3,4,0,0,0,4,0,3,4,4,3,1,6,1,0,0,0,0,0,0,0,0,0,0,0,0,0,0,0,0,0,0,0,0,0,0,0,0,0,0,0,0,0,0,0,0,0,0,0,0,0,0,0,0,0,0,0,0,0,0,0,0,0,0,0,0,0,0,0,0,0,0,0,0,0,0],"split_type":[0,0,0,0,0,0,0,0,0,0,0,0,0,0,0,0,0,0,0,0,0,0,0,0,0,0,0,0,0,0,0,0,0,0,0,0,0,0,0,0,0,0,0,0,0,0,0,0,0,0,0,0,0,0,0,0,0,0,0,0,0,0,0,0,0,0,0,0,0,0,0,0,0,0,0,0,0,0,0,0,0,0,0,0,0,0,0,0,0,0,0,0,0,0,0,0,0,0,0,0,0,0,0,0,0,0,0,0,0,0,0,0,0,0,0,0,0,0,0,0,0,0,0,0,0],"sum_hessian":[3.5671E4,1.8231E4,1.744E4,1.2697E4,5.534E3,7.189E3,1.0251E4,7.942E3,4.755E3,3.461E3,2.073E3,4.237E3,2.952E3,6.061E3,4.19E3,6.164E3,1.778E3,2.43E3,2.325E3,5.6E2,2.901E3,1.105E3,9.68E2,7.53E2,3.484E3,8.88E2,2.064E3,4.561E3,1.5E3,3.361E3,8.29E2,1.591E3,4.573E3,3.26E2,1.452E3,3.85E2,2.045E3,1.506E3,8.19E2,1.3E1,5.47E2,5.18E2,2.383E3,5.26E2,5.79E2,4.04E2,5.64E2,4.5E1,7.08E2,2.227E3,1.257E3,7.3E1,8.15E2,1.901E3,1.63E2,1.87E2,4.374E3,3.36E2,1.164E3,1.908E3,1.453E3,1.4E1,8.15E2,3.56E2,1.235E3,1.212E3,3.361E3,1.72E2,1.54E2,8.88E2,5.64E2,1E0,3.84E2,1.306E3,7.39E2,8.1E2,6.96E2,3.37E2,4.82E2,1.8E1,5.29E2,4.6E1,4.72E2,1.07E3,1.313E3,4E1,4.86E2,1.79E2,4E2,2.2E2,1.84E2,4.75E2,8.9E1,3.6E1,9E0,4.74E2,2.34E2,1.35E3,8.77E2,1.007E3,2.5E2,6E0,6.7E1,3.51E2,4.64E2,8.56E2,1.045E3,9.5E1,6.8E1,1E2,8.7E1,2.507E3,1.867E3,2.02E2,1.34E2,1E2,1.064E3,8.53E2,1.055E3,1.009E3,4.44E2,9E0,5E0,2.89E2,5.26E2],"tree_param":{"num_deleted":"0","num_feature":"7","num_nodes":"125","size_leaf_vector":"1"}},{"base_weights":[-2.8398514E-4,-2.931456E-1,3.144993E-1,-3.9117587E-1,-7.910197E-2,1.6265649E-1,4.2578432E-1,-4.3650037E-1,-2.9687947E-1,-1.2764527E-1,6.613869E-3,1.13359794E-1,2.6202008E-1,3.7277037E-1,5.0242347E-1,-4.674139E-1,-3.2714853E-1,-3.35305E-1,-2.1015759E-1,-1.8011074E-1,-7.3414676E-2,-2.7225956E-2,1.0262539E-1,6.1321568E-2,1.5870954E-1,2.2186331E-1,3.331135E-1,3.2592624E-1,5.303828E-1,4.434154E-1,5.4277194E-1,-5.597236E-1,-4.3735713E-1,-4.722625E-1,-2.9445994E-1,-4.7043997E-1,-3.21349E-1,-2.6380357E-1,-1.5401755E-1,-2.2110632E-1,-1.259002E-1,-1.7861576E-1,-5.368022E-2,-1.0047246E-1,-1.3430828E-3,6.663029E-2,2.8751442E-1,2.7212568E-2,1.2648343E-1,1.0719367E-1,2.2167963E-1,1.534203E-1,2.689466E-1,2.7132952E-1,4.4037676E-1,2.850388E-1,3.68682E-1,4.1783178E-1,5.459972E-1,3.6987007E-1,5.749472E-1,5.002715E-1,6.15462E-1,-7.215196E-2,-5.442185E-2,-5.2795768E-2,-4.0389944E-2,-5.6472804E-2,-4.432437E-2,-4.76608E-2,-2.7725993E-2,-4.9137186E-2,-3.628968E-2,-3.730708E-2,-2.7793447E-2,-2.9245052E-2,-1.6858852E-2,-1.8128052E-2,-1.0577901E-2,-3.2770697E-2,-2.0149155E-2,-2.226065E-2,-1.0530853E-2,-2.0941352E-2,-7.3903524E-3,-1.0947904E-2,-2.2450841E-3,-1.4182328E-2,-4.507896E-3,-2.634152E-3,9.110561E-3,4.1442877E-3,1.4183216E-2,1.7366707E-2,3.769068E-2,-1.3735747E-3,7.654047E-3,6.1317887E-3,1.665101E-2,7.6698177E-3,1.649428E-2,1.9677496E-2,3.3714782E-2,-1.0372889E-2,1.6330233E-2,2.2566786E-2,3.1043315E-2,1.9482872E-2,3.0217383E-2,4.1046653E-2,5.8774438E-2,1.4513102E-2,2.9860353E-2,2.7884511E-2,3.9330013E-2,3.5185013E-2,5.2496415E-2,5.065145E-2,6.0798176E-2,2.5037607E-2,4.0111538E-2,5.0913937E-2,6.1344177E-2,4.3781966E-2,5.5356085E-2,5.7760652E-2,6.469078E-2],"categories":[],"categories_nodes":[],"categories_segments":[],"categories_sizes":[],"default_left":[0,0,0,0,0,0,0,0,0,0,0,0,0,0,0,0,0,0,0,0,0,0,0,0,0,0,0,0,0,0,0,0,0,0,0,0,0,0,0,0,0,0,0,0,0,0,0,0,0,0,0,0,0,0,0,0,0,0,0,0,0,0,0,0,0,0,0,0,0,0,0,0,0,0,0,0,0,0,0,0,0,0,0,0,0,0,0,0,0,0,0,0,0,0,0,0,0,0,0,0,0,0,0,0,0,0,0,0,0,0,0,0,0,0,0,0,0,0,0,0,0,0,0,0,0,0,0],"id":9,"left_children":[1,3,5,7,9,11,13,15,17,19,21,23,25,27,29,31,33,35,37,39,41,43,45,47,49,51,53,55,57,59,61,63,65,67,69,71,73,75,77,79,81,83,85,87,89,91,93,95,97,99,101,103,105,107,109,111,113,115,117,119,121,123,125,-1,-1,-1,-1,-1,-1,-1,-1,-1,-1,-1,-1,-1,-1,-1,-1,-1,-1,-1,-1,-1,-1,-1,-1,-1,-1,-1,-1,-1,-1,-1,-1,-1,-1,-1,-1,-1,-1,-1,-1,-1,-1,-1,-1,-1,-1,-1,-1,-1,-1,-1,-1,-1,-1,-1,-1,-1,-1,-1,-1,-1,-1,-1,-1],"loss_changes":[3.2912935E3,3.880453E2,2.9069177E2,5.4085205E1,2.4180004E1,3.5624985E1,4.0153687E1,2.880066E1,1.3662079E1,1.0542595E1,6.83222E0,1.1476009E1,6.814926E0,4.318878E1,9.418579E0,1.8275146E1,8.831024E0,5.2313232E0,3.7781868E0,4.1613693E0,3.7813454E0,2.9478803E0,3.6278381E0,5.037428E0,8.410522E0,4.937538E0,5.6395035E0,7.814148E0,2.13385E0,1.577771E1,7.1220093E0,3.7115479E0,1.5064453E1,6.7809296E-1,4.7113953E0,4.182167E-1,5.7121277E0,1.7154655E0,7.988329E-1,2.1754684E0,1.5975122E0,9.132967E-1,2.6793451E0,9.2357683E-1,2.6601334E0,8.6542654E-1,8.403044E-1,3.010694E0,2.0217009E0,2.5092278E0,3.2953491E0,1.6229506E0,1.5710144E0,1.248352E0,1.1516151E0,4.3595886E0,4.7802124E0,1.0028477E0,2.5725098E0,3.8684082E0,1.1848145E0,4.8262024E0,6.774597E-1,0E0,0E0,0E0,0E0,0E0,0E0,0E0,0E0,0E0,0E0,0E0,0E0,0E0,0E0,0E0,0E0,0E0,0E0,0E0,0E0,0E0,0E0,0E0,0E0,0E0,0E0,0E0,0E0,0E0,0E0,0E0,0E0,0E0,0E0,0E0,0E0,0E0,0E0,0E0,0E0,0E0,0E0,0E0,0E0,0E0,0E0,0E0,0E0,0E0,0E0,0E0,0E0,0E0,0E0,0E0,0E0,0E0,0E0,0E0,0E0,0E0,0E0,0E0,0E0],"parents":[2147483647,0,0,1,1,2,2,3,3,4,4,5,5,6,6,7,7,8,8,9,9,10,10,11,11,12,12,13,13,14,14,15,15,16,16,17,17,18,18,19,19,20,20,21,21,22,22,23,23,24,24,25,25,26,26,27,27,28,28,29,29,30,30,31,31,32,32,33,33,34,34,35,35,36,36,37,37,38,38,39,39,40,40,41,41,42,42,43,43,44,44,45,45,46,46,47,47,48,48,49,49,50,50,51,51,52,52,53,53,54,54,55,55,56,56,57,57,58,58,59,59,60,60,61,61,62,62],"right_children":[2,4,6,8,10,12,14,16,18,20,22,24,26,28,30,32,34,36,38,40,42,44,46,48,50,52,54,56,58,60,62,64,66,68,70,72,74,76,78,80,82,84,86,88,90,92,94,96,98,100,102,104,106,108,110,112,114,116,118,120,122,124,126,-1,-1,-1,-1,-1,-1,-1,-1,-1,-1,-1,-1,-1,-1,-1,-1,-1,-1,-1,-1,-1,-1,-1,-1,-1,-1,-1,-1,-1,-1,-1,-1,-1,-1,-1,-1,-1,-1,-1,-1,-1,-1,-1,-1,-1,-1,-1,-1,-1,-1,-1,-1,-1,-1,-1,-1,-1,-1,-1,-1,-1,-1,-1,-1],"split_conditions":[1.429874E2,1.124488E2,6.34E0,4.63E0,4E0,6.09E0,3E0,6E0,5E0,5E0,5E0,4E0,3E0,7.06E0,3E0,3E0,4.26E0,2E0,4E0,5.29E0,2E0,3E0,6E0,4E0,3E0,4E0,4E0,2E0,1E0,7.03E0,1.7938045E2,1E0,3E0,3.928196E1,2E0,4.85E0,3E0,7E0,6.743385E1,2E0,2E0,1.30243E2,8.470656E1,9.14628E1,6E0,1.282922E2,6E0,1.507848E2,2E0,1.53342E2,5E0,1E0,2E0,2E0,5E0,1E0,2E0,2.588723E2,2E0,1E0,1E0,4E0,4E0,-7.215196E-2,-5.442185E-2,-5.2795768E-2,-4.0389944E-2,-5.6472804E-2,-4.432437E-2,-4.76608E-2,-2.7725993E-2,-4.9137186E-2,-3.628968E-2,-3.730708E-2,-2.7793447E-2,-2.9245052E-2,-1.6858852E-2,-1.8128052E-2,-1.0577901E-2,-3.2770697E-2,-2.0149155E-2,-2.226065E-2,-1.0530853E-2,-2.0941352E-2,-7.3903524E-3,-1.0947904E-2,-2.2450841E-3,-1.4182328E-2,-4.507896E-3,-2.634152E-3,9.110561E-3,4.1442877E-3,1.4183216E-2,1.7366707E-2,3.769068E-2,-1.3735747E-3,7.654047E-3,6.1317887E-3,1.665101E-2,7.6698177E-3,1.649428E-2,1.9677496E-2,3.3714782E-2,-1.0372889E-2,1.6330233E-2,2.2566786E-2,3.1043315E-2,1.9482872E-2,3.0217383E-2,4.1046653E-2,5.8774438E-2,1.4513102E-2,2.9860353E-2,2.7884511E-2,3.9330013E-2,3.5185013E-2,5.2496415E-2,5.065145E-2,6.0798176E-2,2.5037607E-2,4.0111538E-2,5.0913937E-2,6.1344177E-2,4.3781966E-2,5.5356085E-2,5.7760652E-2,6.469078E-2],"split_indices":[2,2,0,6,4,0,4,4,4,5,5,5,4,0,5,5,6,5,5,6,4,5,4,4,4,5,5,4,5,0,3,5,4,3,5,6,4,4,3,5,5,2,3,3,4,2,5,2,5,2,4,4,4,5,4,4,5,3,4,5,5,4,4,0,0,0,0,0,0,0,0,0,0,0,0,0,0,0,0,0,0,0,0,0,0,0,0,0,0,0,0,0,0,0,0,0,0,0,0,0,0,0,0,0,0,0,0,0,0,0,0,0,0,0,0,0,0,0,0,0,0,0,0,0,0,0,0],"split_type":[0,0,0,0,0,0,0,0,0,0,0,0,0,0,0,0,0,0,0,0,0,0,0,0,0,0,0,0,0,0,0,0,0,0,0,0,0,0,0,0,0,0,0,0,0,0,0,0,0,0,0,0,0,0,0,0,0,0,0,0,0,0,0,0,0,0,0,0,0,0,0,0,0,0,0,0,0,0,0,0,0,0,0,0,0,0,0,0,0,0,0,0,0,0,0,0,0,0,0,0,0,0,0,0,0,0,0,0,0,0,0,0,0,0,0,0,0,0,0,0,0,0,0,0,0,0,0],"sum_hessian":[3.57E4,1.8494E4,1.7206E4,1.2684E4,5.81E3,7.278E3,9.928E3,8.564E3,4.12E3,3.709E3,2.101E3,4.866E3,2.412E3,5.872E3,4.056E3,6.674E3,1.89E3,2.853E3,1.267E3,1.884E3,1.825E3,1.554E3,5.47E2,2.267E3,2.599E3,1.544E3,8.68E2,4.529E3,1.343E3,1.652E3,2.404E3,1.635E3,5.039E3,3.45E2,1.545E3,2.64E2,2.589E3,6.46E2,6.21E2,1.071E3,8.13E2,2.87E2,1.538E3,4.05E2,1.149E3,4.59E2,8.8E1,1.489E3,7.78E2,1.431E3,1.168E3,6.31E2,9.13E2,5.53E2,3.15E2,2.319E3,2.21E3,1.67E2,1.176E3,1.062E3,5.9E2,1.522E3,8.82E2,1.39E2,1.496E3,1.355E3,3.684E3,7.8E1,2.67E2,1.31E2,1.414E3,2.18E2,4.6E1,1.178E3,1.411E3,4.95E2,1.51E2,3.95E2,2.26E2,1.64E2,9.07E2,1.41E2,6.72E2,2.21E2,6.6E1,5.51E2,9.87E2,2.31E2,1.74E2,9.05E2,2.44E2,3.45E2,1.14E2,4E1,4.8E1,8.14E2,6.75E2,2.97E2,4.81E2,9.38E2,4.93E2,9.63E2,2.05E2,2.3E1,6.08E2,4.5E2,4.63E2,1.61E2,3.92E2,2.65E2,5E1,2.06E2,2.113E3,4.78E2,1.732E3,1.06E2,6.1E1,7.24E2,4.52E2,2.22E2,8.4E2,2.23E2,3.67E2,7.05E2,8.17E2,4.09E2,4.73E2],"tree_param":{"num_deleted":"0","num_feature":"7","num_nodes":"127","size_leaf_vector":"1"}},{"base_weights":[1.4291787E-4,-2.787156E-1,2.6926953E-1,-3.6582837E-1,-1.1487829E-1,9.91312E-2,3.6437702E-1,-4.3883103E-1,-3.2374582E-1,-2.1632577E-1,-7.9952985E-2,5.47219E-2,1.5542893E-1,3.109586E-1,4.4465622E-1,-4.8586923E-1,-3.7455356E-1,-3.800779E-1,-2.6613063E-1,-2.4702354E-1,-1.391297E-1,-1.6498862E-1,-3.753544E-2,2.0550748E-2,1.2301909E-1,7.3364384E-2,1.8219313E-1,2.5436532E-1,3.9508304E-1,3.785598E-1,4.770206E-1,-5.827681E-1,-4.602994E-1,-4.6471453E-1,-3.337076E-1,-4.9673736E-1,-3.6221388E-1,-2.9544047E-1,-2.223369E-1,-3.314037E-1,-2.3165567E-1,-1.56093E-1,-2.768038E-2,-2.151076E-1,-1.4421333E-1,-6.387525E-2,2.2817306E-2,-3.0336106E-2,2.6522871E-2,1.01680964E-1,1.9752283E-1,-9.9697925E-2,8.5558884E-2,1.7035921E-1,2.7581385E-1,5.1373176E-2,2.6237735E-1,3.6586392E-1,5.077227E-1,3.234479E-1,4.6896347E-1,4.4553483E-1,5.3959316E-1,-6.635119E-2,-5.4943204E-2,-4.0685233E-2,-5.2122474E-2,-5.266601E-2,-4.3456737E-2,-3.5358764E-2,-2.5428478E-2,-5.571505E-2,-4.1983664E-2,-3.92765E-2,-3.2871883E-2,-3.284063E-2,-2.4992283E-2,-2.4151646E-2,-1.6919106E-2,-5.1436402E-2,-3.154105E-2,-2.4432909E-2,-1.7798109E-2,-1.6443541E-2,-1.0505634E-2,-5.9722974E-3,3.9390945E-3,-3.8575765E-2,-2.1104505E-2,-1.75335E-2,-1.2333789E-2,-9.160864E-3,-4.9268403E-3,9.5601723E-4,1.1174915E-2,-5.814905E-3,4.2817104E-3,6.73152E-3,1.3583176E-2,1.8585404E-2,2.514775E-2,-2.97146E-2,-6.3555627E-3,4.356479E-3,1.2297607E-2,1.479951E-2,2.121206E-2,2.2831773E-2,3.361855E-2,-3.9256904E-3,8.717849E-3,2.2979986E-2,2.9298676E-2,2.7355025E-2,3.8177684E-2,4.2893607E-2,5.3251248E-2,2.2049012E-2,3.349641E-2,3.4041457E-2,4.86294E-2,4.1088905E-2,5.0762296E-2,5.2727874E-2,5.842793E-2],"categories":[],"categories_nodes":[],"categories_segments":[],"categories_sizes":[],"default_left":[0,0,0,0,0,0,0,0,0,0,0,0,0,0,0,0,0,0,0,0,0,0,0,0,0,0,0,0,0,0,0,0,0,0,0,0,0,0,0,0,0,0,0,0,0,0,0,0,0,0,0,0,0,0,0,0,0,0,0,0,0,0,0,0,0,0,0,0,0,0,0,0,0,0,0,0,0,0,0,0,0,0,0,0,0,0,0,0,0,0,0,0,0,0,0,0,0,0,0,0,0,0,0,0,0,0,0,0,0,0,0,0,0,0,0,0,0,0,0,0,0,0,0,0,0],"id":10,"left_children":[1,3,5,7,9,11,13,15,17,19,21,23,25,27,29,31,33,35,37,39,41,43,45,47,49,51,53,55,57,59,61,63,65,67,69,71,73,75,77,79,81,83,85,87,89,91,93,-1,95,97,99,101,103,105,107,109,111,113,115,117,119,121,123,-1,-1,-1,-1,-1,-1,-1,-1,-1,-1,-1,-1,-1,-1,-1,-1,-1,-1,-1,-1,-1,-1,-1,-1,-1,-1,-1,-1,-1,-1,-1,-1,-1,-1,-1,-1,-1,-1,-1,-1,-1,-1,-1,-1,-1,-1,-1,-1,-1,-1,-1,-1,-1,-1,-1,-1,-1,-1,-1,-1,-1,-1],"loss_changes":[2.674945E3,2.4979517E2,2.9346265E2,3.4966187E1,2.1517563E1,1.6254925E1,4.9752808E1,1.2444214E1,2.3439087E1,3.6529617E0,1.630828E1,8.487813E0,6.2858887E0,3.317328E1,9.758057E0,5.697998E0,6.359619E0,7.457947E0,4.541107E0,1.3652039E0,8.3697224E-1,1.5360374E0,4.8007016E0,4.7009997E0,1.9083061E0,1.5005889E0,2.348297E0,6.7864075E0,9.059296E0,7.4812317E0,5.8965454E0,9.785919E-1,6.007477E0,7.963791E-1,1.8379669E0,2.014656E0,3.1271057E0,3.139557E0,1.4300003E0,3.322792E-1,5.986595E-1,1.4707184E-1,1.3130088E-1,2.2293663E-1,6.7158127E-1,8.470001E-1,1.0812366E0,0E0,3.2902284E0,1.099926E0,1.22621536E-1,3.1651732E-1,1.0332723E0,1.7636681E0,6.1429214E-1,5.226284E-1,3.9433289E0,3.1772766E0,8.965759E-1,1.0584717E0,1.1221313E0,4.261383E0,2.6312256E-1,0E0,0E0,0E0,0E0,0E0,0E0,0E0,0E0,0E0,0E0,0E0,0E0,0E0,0E0,0E0,0E0,0E0,0E0,0E0,0E0,0E0,0E0,0E0,0E0,0E0,0E0,0E0,0E0,0E0,0E0,0E0,0E0,0E0,0E0,0E0,0E0,0E0,0E0,0E0,0E0,0E0,0E0,0E0,0E0,0E0,0E0,0E0,0E0,0E0,0E0,0E0,0E0,0E0,0E0,0E0,0E0,0E0,0E0,0E0,0E0,0E0,0E0],"parents":[2147483647,0,0,1,1,2,2,3,3,4,4,5,5,6,6,7,7,8,8,9,9,10,10,11,11,12,12,13,13,14,14,15,15,16,16,17,17,18,18,19,19,20,20,21,21,22,22,23,23,24,24,25,25,26,26,27,27,28,28,29,29,30,30,31,31,32,32,33,33,34,34,35,35,36,36,37,37,38,38,39,39,40,40,41,41,42,42,43,43,44,44,45,45,46,46,48,48,49,49,50,50,51,51,52,52,53,53,54,54,55,55,56,56,57,57,58,58,59,59,60,60,61,61,62,62],"right_children":[2,4,6,8,10,12,14,16,18,20,22,24,26,28,30,32,34,36,38,40,42,44,46,48,50,52,54,56,58,60,62,64,66,68,70,72,74,76,78,80,82,84,86,88,90,92,94,-1,96,98,100,102,104,106,108,110,112,114,116,118,120,122,124,-1,-1,-1,-1,-1,-1,-1,-1,-1,-1,-1,-1,-1,-1,-1,-1,-1,-1,-1,-1,-1,-1,-1,-1,-1,-1,-1,-1,-1,-1,-1,-1,-1,-1,-1,-1,-1,-1,-1,-1,-1,-1,-1,-1,-1,-1,-1,-1,-1,-1,-1,-1,-1,-1,-1,-1,-1,-1,-1,-1,-1,-1],"split_conditions":[6E-1,4.81E0,6.17E0,4.37E0,1.150008E2,1.1947362E2,6.7E0,5E0,4E0,5E0,3E0,4E0,2E0,3E0,2E0,4.25E0,4.16E0,2E0,6E0,2E0,5E0,2E0,5E0,1E0,6E0,1E0,5E0,1E0,5E0,2.3939194E2,1.4E0,2.5E-1,4.33E0,3.98E0,7E0,4.65E0,4.56E0,3.8E-1,4.68E0,1E0,5E-1,7E0,5E-1,1E0,5.18E0,8.470656E1,7E0,-3.0336106E-2,7E-1,5.71E0,1.1746566E2,5.83E0,1.3200551E2,8.5E-1,7.9E-1,6.37E0,2E0,1E0,1.826114E2,1E0,1E0,4E0,2.50683E2,-6.635119E-2,-5.4943204E-2,-4.0685233E-2,-5.2122474E-2,-5.266601E-2,-4.3456737E-2,-3.5358764E-2,-2.5428478E-2,-5.571505E-2,-4.1983664E-2,-3.92765E-2,-3.2871883E-2,-3.284063E-2,-2.4992283E-2,-2.4151646E-2,-1.6919106E-2,-5.1436402E-2,-3.154105E-2,-2.4432909E-2,-1.7798109E-2,-1.6443541E-2,-1.0505634E-2,-5.9722974E-3,3.9390945E-3,-3.8575765E-2,-2.1104505E-2,-1.75335E-2,-1.2333789E-2,-9.160864E-3,-4.9268403E-3,9.5601723E-4,1.1174915E-2,-5.814905E-3,4.2817104E-3,6.73152E-3,1.3583176E-2,1.8585404E-2,2.514775E-2,-2.97146E-2,-6.3555627E-3,4.356479E-3,1.2297607E-2,1.479951E-2,2.121206E-2,2.2831773E-2,3.361855E-2,-3.9256904E-3,8.717849E-3,2.2979986E-2,2.9298676E-2,2.7355025E-2,3.8177684E-2,4.2893607E-2,5.3251248E-2,2.2049012E-2,3.349641E-2,3.4041457E-2,4.86294E-2,4.1088905E-2,5.0762296E-2,5.2727874E-2,5.842793E-2],"split_indices":[1,6,0,6,2,3,0,4,4,4,4,4,4,4,4,6,6,4,4,4,0,4,4,4,4,4,4,4,4,3,1,1,0,6,4,6,6,1,6,4,1,4,1,4,6,3,4,0,1,0,3,0,3,1,1,0,4,1,2,4,4,4,2,0,0,0,0,0,0,0,0,0,0,0,0,0,0,0,0,0,0,0,0,0,0,0,0,0,0,0,0,0,0,0,0,0,0,0,0,0,0,0,0,0,0,0,0,0,0,0,0,0,0,0,0,0,0,0,0,0,0,0,0,0,0],"split_type":[0,0,0,0,0,0,0,0,0,0,0,0,0,0,0,0,0,0,0,0,0,0,0,0,0,0,0,0,0,0,0,0,0,0,0,0,0,0,0,0,0,0,0,0,0,0,0,0,0,0,0,0,0,0,0,0,0,0,0,0,0,0,0,0,0,0,0,0,0,0,0,0,0,0,0,0,0,0,0,0,0,0,0,0,0,0,0,0,0,0,0,0,0,0,0,0,0,0,0,0,0,0,0,0,0,0,0,0,0,0,0,0,0,0,0,0,0,0,0,0,0,0,0,0,0],"sum_hessian":[3.5641E4,1.7504E4,1.8137E4,1.1427E4,6.077E3,6.504E3,1.1633E4,4.175E3,7.252E3,1.555E3,4.522E3,3.637E3,2.867E3,6.988E3,4.645E3,2.407E3,1.768E3,3.664E3,3.588E3,1.111E3,4.44E2,1.504E3,3.018E3,2.425E3,1.212E3,7.06E2,2.161E3,4.18E3,2.808E3,1.531E3,3.114E3,4.98E2,1.909E3,5.48E2,1.22E3,4.83E2,3.181E3,2.146E3,1.442E3,1.68E2,9.43E2,3.85E2,5.9E1,4.38E2,1.066E3,2.101E3,9.17E2,4.3E1,2.382E3,9.44E2,2.68E2,4.6E1,6.6E2,1.921E3,2.4E2,1.59E2,4.021E3,2.233E3,5.75E2,9.54E2,5.77E2,2.077E3,1.037E3,1.4E2,3.58E2,1.021E3,8.88E2,1.74E2,3.74E2,9.73E2,2.47E2,2.67E2,2.16E2,1.658E3,1.523E3,1.241E3,9.05E2,1.057E3,3.85E2,1.1E1,1.57E2,7.6E2,1.83E2,3.29E2,5.6E1,4E1,1.9E1,8E0,4.3E2,4.25E2,6.41E2,7.23E2,1.378E3,7.99E2,1.18E2,3.84E2,1.998E3,4.72E2,4.72E2,2.24E2,4.4E1,6E0,4E1,3.12E2,3.48E2,1.254E3,6.67E2,1.37E2,1.03E2,4.5E1,1.14E2,1.952E3,2.069E3,3.31E2,1.902E3,1.42E2,4.33E2,9.8E1,8.56E2,7.1E1,5.06E2,1.338E3,7.39E2,8.23E2,2.14E2],"tree_param":{"num_deleted":"0","num_feature":"7","num_nodes":"125","size_leaf_vector":"1"}},{"base_weights":[2.7534502E-4,-2.4494559E-1,2.4748857E-1,-3.2758555E-1,-9.503343E-2,1.1317205E-1,3.400604E-1,-4.2345968E-1,-2.985923E-1,-1.6944169E-1,-5.7019267E-2,6.5284505E-2,1.7501369E-1,2.9707754E-1,4.0960672E-1,-4.7051874E-1,-3.6534178E-1,-3.8882238E-1,-2.686517E-1,-2.3594947E-1,-1.3550834E-1,-1.6100956E-1,-2.829105E-2,1.10833775E-2,1.0957763E-1,1.4642607E-1,2.3805995E-1,2.3907168E-1,3.7698987E-1,3.4848538E-1,4.4713044E-1,-5.715524E-2,-4.5117036E-1,-4.4030467E-1,-3.3178636E-1,-4.2401025E-1,-3.1786892E-1,-3.30271E-1,-2.1018538E-1,-2.657868E-1,-2.0258445E-1,-2.4417406E-1,-1.10911675E-1,-3.009958E-1,-1.3936482E-1,-1.3329221E-1,-8.032762E-3,-1.20300904E-1,2.6331592E-2,7.750489E-2,1.9853811E-1,1.09200396E-1,1.9772112E-1,2.2857638E-1,5.2192414E-1,2.1224837E-1,3.0304825E-1,2.5461245E-1,4.1493392E-1,2.637272E-1,4.3245667E-1,3.841575E-1,4.8807126E-1,-5.7718188E-2,-4.3198533E-2,-5.1132333E-2,-4.1782793E-2,-4.2596295E-2,-3.0214025E-2,-4.717849E-2,-3.770762E-2,-3.79267E-2,-2.9303273E-2,-3.8355254E-2,-2.7432043E-2,-2.2841414E-2,-1.4763384E-2,-2.9867632E-2,-2.4920423E-2,-2.2251647E-2,-1.2631388E-2,-2.8003106E-2,-2.159611E-2,-1.6897492E-2,-8.550201E-3,-3.7583437E-2,-2.674286E-2,-1.695262E-2,-8.258051E-3,-2.6265865E-2,-1.1153427E-2,-3.6245883E-3,5.924654E-3,-2.7287329E-2,-1.0854816E-2,-8.049112E-3,4.571409E-3,1.0311644E-3,1.0130896E-2,1.7578598E-2,3.1052321E-2,5.315974E-3,1.3871682E-2,1.2613787E-2,2.263366E-2,1.8086402E-2,2.5486568E-2,2.4453664E-2,5.4291077E-2,3.6247957E-3,2.2006096E-2,2.6223361E-2,3.5047125E-2,1.1786814E-2,2.7818054E-2,3.635194E-2,4.6102963E-2,2.1522097E-2,3.0159427E-2,3.410018E-2,4.5797065E-2,3.408739E-2,4.5471262E-2,4.480101E-2,5.177567E-2],"categories":[],"categories_nodes":[],"categories_segments":[],"categories_sizes":[],"default_left":[0,0,0,0,0,0,0,0,0,0,0,0,0,0,0,0,0,0,0,0,0,0,0,0,0,0,0,0,0,0,0,0,0,0,0,0,0,0,0,0,0,0,0,0,0,0,0,0,0,0,0,0,0,0,0,0,0,0,0,0,0,0,0,0,0,0,0,0,0,0,0,0,0,0,0,0,0,0,0,0,0,0,0,0,0,0,0,0,0,0,0,0,0,0,0,0,0,0,0,0,0,0,0,0,0,0,0,0,0,0,0,0,0,0,0,0,0,0,0,0,0,0,0,0,0],"id":11,"left_children":[1,3,5,7,9,11,13,15,17,19,21,23,25,27,29,31,33,35,37,39,41,43,45,47,49,51,53,55,57,59,61,-1,63,65,67,69,71,73,75,77,79,81,83,85,87,89,91,93,95,97,99,101,103,105,107,109,111,113,115,117,119,121,123,-1,-1,-1,-1,-1,-1,-1,-1,-1,-1,-1,-1,-1,-1,-1,-1,-1,-1,-1,-1,-1,-1,-1,-1,-1,-1,-1,-1,-1,-1,-1,-1,-1,-1,-1,-1,-1,-1,-1,-1,-1,-1,-1,-1,-1,-1,-1,-1,-1,-1,-1,-1,-1,-1,-1,-1,-1,-1,-1,-1,-1,-1],"loss_changes":[2.157653E3,2.2133081E2,2.2034045E2,3.1890137E1,1.7954567E1,2.1408707E1,3.1242188E1,7.135956E0,2.3796143E1,4.813446E0,1.2557696E1,9.788994E0,5.653343E0,2.9984253E1,9.029602E0,2.6216125E0,2.8724213E0,5.362976E0,2.387381E1,6.669159E-1,3.7790031E0,2.7153206E0,7.0099955E0,3.6793623E0,6.387211E0,4.1296425E0,2.5269814E0,6.39151E0,1.2557129E1,1.0761124E1,6.201172E0,0E0,2.750824E0,3.737793E-1,2.1970062E0,3.1159668E0,1.0081329E0,9.535767E0,3.8579102E0,1.3227081E-1,4.9789143E-1,2.0457172E-1,1.7014065E0,2.0345688E-1,1.3390284E0,1.4709654E0,5.2486587E0,3.1287074E-1,3.4096365E0,2.6396856E0,1.458868E0,2.0801249E0,1.8416328E0,1.1492767E0,4.770279E-2,3.641327E0,2.0546265E0,2.055584E0,4.7619934E0,1.3365593E0,1.6311951E0,2.840866E0,1.54953E0,0E0,0E0,0E0,0E0,0E0,0E0,0E0,0E0,0E0,0E0,0E0,0E0,0E0,0E0,0E0,0E0,0E0,0E0,0E0,0E0,0E0,0E0,0E0,0E0,0E0,0E0,0E0,0E0,0E0,0E0,0E0,0E0,0E0,0E0,0E0,0E0,0E0,0E0,0E0,0E0,0E0,0E0,0E0,0E0,0E0,0E0,0E0,0E0,0E0,0E0,0E0,0E0,0E0,0E0,0E0,0E0,0E0,0E0,0E0,0E0,0E0,0E0],"parents":[2147483647,0,0,1,1,2,2,3,3,4,4,5,5,6,6,7,7,8,8,9,9,10,10,11,11,12,12,13,13,14,14,15,15,16,16,17,17,18,18,19,19,20,20,21,21,22,22,23,23,24,24,25,25,26,26,27,27,28,28,29,29,30,30,32,32,33,33,34,34,35,35,36,36,37,37,38,38,39,39,40,40,41,41,42,42,43,43,44,44,45,45,46,46,47,47,48,48,49,49,50,50,51,51,52,52,53,53,54,54,55,55,56,56,57,57,58,58,59,59,60,60,61,61,62,62],"right_children":[2,4,6,8,10,12,14,16,18,20,22,24,26,28,30,32,34,36,38,40,42,44,46,48,50,52,54,56,58,60,62,-1,64,66,68,70,72,74,76,78,80,82,84,86,88,90,92,94,96,98,100,102,104,106,108,110,112,114,116,118,120,122,124,-1,-1,-1,-1,-1,-1,-1,-1,-1,-1,-1,-1,-1,-1,-1,-1,-1,-1,-1,-1,-1,-1,-1,-1,-1,-1,-1,-1,-1,-1,-1,-1,-1,-1,-1,-1,-1,-1,-1,-1,-1,-1,-1,-1,-1,-1,-1,-1,-1,-1,-1,-1,-1,-1,-1,-1,-1,-1,-1,-1,-1,-1],"split_conditions":[6.3E-1,4.82E0,1E0,4.32E0,3E0,1.2507528E2,1.2E0,5E0,3E0,5.1E-1,1.150008E2,4E0,5E0,3E0,2E0,4.12E0,4.202705E1,4.68E0,4E0,5E-1,3E0,2E0,3E0,1E0,4E0,3E0,5E0,5E0,3E0,1.5E0,2E0,-5.715524E-2,2E0,4E0,3E0,5E0,2E0,5E0,6E0,2E0,6E0,2E0,2E0,1E0,5E0,1E0,5E0,6.9E-1,2E0,2E0,6E0,9E-1,2E0,2E0,7.7E-1,1E0,2E0,1E0,4E0,1E0,2E0,1.51E0,3E0,-5.7718188E-2,-4.3198533E-2,-5.1132333E-2,-4.1782793E-2,-4.2596295E-2,-3.0214025E-2,-4.717849E-2,-3.770762E-2,-3.79267E-2,-2.9303273E-2,-3.8355254E-2,-2.7432043E-2,-2.2841414E-2,-1.4763384E-2,-2.9867632E-2,-2.4920423E-2,-2.2251647E-2,-1.2631388E-2,-2.8003106E-2,-2.159611E-2,-1.6897492E-2,-8.550201E-3,-3.7583437E-2,-2.674286E-2,-1.695262E-2,-8.258051E-3,-2.6265865E-2,-1.1153427E-2,-3.6245883E-3,5.924654E-3,-2.7287329E-2,-1.0854816E-2,-8.049112E-3,4.571409E-3,1.0311644E-3,1.0130896E-2,1.7578598E-2,3.1052321E-2,5.315974E-3,1.3871682E-2,1.2613787E-2,2.263366E-2,1.8086402E-2,2.5486568E-2,2.4453664E-2,5.4291077E-2,3.6247957E-3,2.2006096E-2,2.6223361E-2,3.5047125E-2,1.1786814E-2,2.7818054E-2,3.635194E-2,4.6102963E-2,2.1522097E-2,3.0159427E-2,3.410018E-2,4.5797065E-2,3.408739E-2,4.5471262E-2,4.480101E-2,5.177567E-2],"split_indices":[1,6,1,6,4,3,1,4,4,1,2,5,5,4,5,6,3,6,5,1,5,5,5,5,4,4,4,5,5,1,4,0,5,5,5,5,4,4,4,4,5,5,4,5,5,5,4,1,4,4,4,1,5,4,1,4,4,5,4,5,4,1,5,0,0,0,0,0,0,0,0,0,0,0,0,0,0,0,0,0,0,0,0,0,0,0,0,0,0,0,0,0,0,0,0,0,0,0,0,0,0,0,0,0,0,0,0,0,0,0,0,0,0,0,0,0,0,0,0,0,0,0,0,0,0],"split_type":[0,0,0,0,0,0,0,0,0,0,0,0,0,0,0,0,0,0,0,0,0,0,0,0,0,0,0,0,0,0,0,0,0,0,0,0,0,0,0,0,0,0,0,0,0,0,0,0,0,0,0,0,0,0,0,0,0,0,0,0,0,0,0,0,0,0,0,0,0,0,0,0,0,0,0,0,0,0,0,0,0,0,0,0,0,0,0,0,0,0,0,0,0,0,0,0,0,0,0,0,0,0,0,0,0,0,0,0,0,0,0,0,0,0,0,0,0,0,0,0,0,0,0,0,0],"sum_hessian":[3.559E4,1.7867E4,1.7723E4,1.1517E4,6.35E3,7.232E3,1.0491E4,2.671E3,8.846E3,2.146E3,4.204E3,4.077E3,3.155E3,6.487E3,4.004E3,1.472E3,1.199E3,2.201E3,6.645E3,7.23E2,1.423E3,9.09E2,3.295E3,1.834E3,2.243E3,2.173E3,9.82E2,3.761E3,2.726E3,1.527E3,2.477E3,2.32E2,1.24E3,3.67E2,8.32E2,1.468E3,7.33E2,3.233E3,3.412E3,3.78E2,3.45E2,2.61E2,1.162E3,1.2E2,7.89E2,5.32E2,2.763E3,1.9E2,1.644E3,1.65E3,5.93E2,1.261E3,9.12E2,9.52E2,3E1,2.653E3,1.108E3,6.47E2,2.079E3,7.62E2,7.65E2,9.8E2,1.497E3,1.6E2,1.08E3,8.3E1,2.84E2,1.96E2,6.36E2,7.23E2,7.45E2,2.07E2,5.26E2,1.653E3,1.58E3,2.64E3,7.72E2,1.21E2,2.57E2,2.72E2,7.3E1,1.11E2,1.5E2,3.52E2,8.1E2,3.4E1,8.6E1,5.14E2,2.75E2,7.5E1,4.57E2,1.947E3,8.16E2,1.2E1,1.78E2,2.52E2,1.392E3,4.32E2,1.218E3,4.95E2,9.8E1,4.36E2,8.25E2,2.62E2,6.5E2,3.41E2,6.11E2,3E0,2.7E1,1.13E2,2.54E3,5.99E2,5.09E2,9.6E1,5.51E2,9.87E2,1.092E3,3.37E2,4.25E2,1.7E2,5.95E2,6.11E2,3.69E2,6.44E2,8.53E2],"tree_param":{"num_deleted":"0","num_feature":"7","num_nodes":"125","size_leaf_vector":"1"}},{"base_weights":[-1.9412133E-4,-2.259462E-1,2.1754561E-1,-3.027572E-1,-1.0508413E-1,7.705105E-2,2.9463357E-1,-3.801298E-1,-2.7720115E-1,-1.8723774E-1,-6.858011E-2,1.0245062E-2,1.0405424E-1,2.5078344E-1,3.609996E-1,-4.2190486E-1,-3.2814512E-1,-3.623591E-1,-2.494427E-1,-2.1665254E-1,-1.2106055E-1,-1.3780089E-1,-3.4101944E-2,-4.747682E-2,5.055105E-2,6.517679E-2,1.4837205E-1,2.0537488E-1,3.1935644E-1,3.056894E-1,3.9071903E-1,-5.1637685E-1,-4.033888E-1,-4.1140682E-1,-3.0222854E-1,-4.3352726E-1,-3.3802167E-1,-3.0352873E-1,-1.9635107E-1,-1.4649808E-1,-2.3549457E-1,-2.3983917E-1,-1.0384831E-1,-1.6055447E-1,-5.3390827E-2,-1.2966354E-1,-1.680559E-2,-5.0476216E-2,5.3352762E-2,-4.6551466E-2,7.186797E-2,1.6968323E-2,1.11931935E-1,1.1580217E-1,2.0979027E-1,1.0076018E-1,2.2054647E-1,2.6173314E-1,4.0014046E-1,2.3224068E-1,3.8954622E-1,3.2982072E-1,4.289637E-1,-5.8781277E-2,-4.920853E-2,-3.4624703E-2,-4.492653E-2,-5.0164074E-2,-3.9974824E-2,-3.8238905E-2,-2.7922247E-2,-4.7224898E-2,-3.513154E-2,-3.949656E-2,-3.0231083E-2,-3.850433E-2,-2.7523667E-2,-2.1408893E-2,-1.3957853E-2,-1.3943928E-2,-2.964955E-2,-2.943675E-2,-2.1017922E-2,-1.08024245E-2,-2.5688319E-2,-1.2590873E-2,-4.900562E-3,-2.3093708E-2,-1.3953718E-2,-9.207223E-3,-2.8289584E-3,-1.8194402E-2,-9.472364E-3,-4.095147E-3,4.1811666E-3,-1.427332E-2,-3.3440702E-3,-7.975587E-3,3.0069114E-4,-1.9263076E-3,9.143102E-3,-2.4846137E-2,2.466716E-3,7.3557603E-3,1.4215911E-2,9.0146735E-3,1.9135423E-2,1.9991938E-2,3.420102E-2,-8.780009E-3,1.1085556E-2,1.8747745E-2,2.5485843E-2,1.575981E-2,2.893917E-2,3.7021413E-2,5.047812E-2,1.8321468E-2,2.6612613E-2,3.0703718E-2,4.1439515E-2,2.7800456E-2,3.9206218E-2,3.9457683E-2,4.614834E-2],"categories":[],"categories_nodes":[],"categories_segments":[],"categories_sizes":[],"default_left":[0,0,0,0,0,0,0,0,0,0,0,0,0,0,0,0,0,0,0,0,0,0,0,0,0,0,0,0,0,0,0,0,0,0,0,0,0,0,0,0,0,0,0,0,0,0,0,0,0,0,0,0,0,0,0,0,0,0,0,0,0,0,0,0,0,0,0,0,0,0,0,0,0,0,0,0,0,0,0,0,0,0,0,0,0,0,0,0,0,0,0,0,0,0,0,0,0,0,0,0,0,0,0,0,0,0,0,0,0,0,0,0,0,0,0,0,0,0,0,0,0,0,0,0,0],"id":12,"left_children":[1,3,5,7,9,11,13,15,17,19,21,23,25,27,29,31,33,35,37,39,41,43,45,47,49,51,53,55,57,59,61,63,65,67,69,71,73,75,77,79,81,83,85,87,89,91,93,95,-1,97,99,101,103,105,107,109,111,113,115,117,119,121,123,-1,-1,-1,-1,-1,-1,-1,-1,-1,-1,-1,-1,-1,-1,-1,-1,-1,-1,-1,-1,-1,-1,-1,-1,-1,-1,-1,-1,-1,-1,-1,-1,-1,-1,-1,-1,-1,-1,-1,-1,-1,-1,-1,-1,-1,-1,-1,-1,-1,-1,-1,-1,-1,-1,-1,-1,-1,-1,-1,-1,-1,-1],"loss_changes":[1.7521862E3,1.6243945E2,1.964956E2,2.1052124E1,2.0385925E1,1.15984955E1,3.400482E1,5.6251526E0,1.8931519E1,4.046036E0,1.12386E1,4.311147E0,7.87978E0,2.1911621E1,7.5389404E0,2.359558E0,2.4370346E0,3.276001E0,1.7376251E1,1.8782196E0,1.295805E0,2.9991322E0,5.1977425E0,1.3548388E0,2.2616358E0,5.500099E0,4.254532E0,6.721649E0,1.2975952E1,9.967468E0,6.908478E0,1.2200928E-1,3.0740662E0,9.297943E-2,1.5695953E0,1.4257812E0,2.8840942E0,6.826477E0,3.0586624E0,2.8582668E-1,1.6356812E0,1.5422964E-1,6.78607E-1,1.7916927E0,3.21693E-1,8.632221E-1,3.7736607E0,1.1881055E0,0E0,3.2441428E-1,1.5973687E0,2.4644597E0,1.4267178E0,2.6963978E0,8.97419E-1,1.0376701E0,4.1618347E0,4.6865997E0,3.4707184E0,1.4015312E0,1.4330215E0,3.670845E0,1.8934021E0,0E0,0E0,0E0,0E0,0E0,0E0,0E0,0E0,0E0,0E0,0E0,0E0,0E0,0E0,0E0,0E0,0E0,0E0,0E0,0E0,0E0,0E0,0E0,0E0,0E0,0E0,0E0,0E0,0E0,0E0,0E0,0E0,0E0,0E0,0E0,0E0,0E0,0E0,0E0,0E0,0E0,0E0,0E0,0E0,0E0,0E0,0E0,0E0,0E0,0E0,0E0,0E0,0E0,0E0,0E0,0E0,0E0,0E0,0E0,0E0,0E0,0E0],"parents":[2147483647,0,0,1,1,2,2,3,3,4,4,5,5,6,6,7,7,8,8,9,9,10,10,11,11,12,12,13,13,14,14,15,15,16,16,17,17,18,18,19,19,20,20,21,21,22,22,23,23,24,24,25,25,26,26,27,27,28,28,29,29,30,30,31,31,32,32,33,33,34,34,35,35,36,36,37,37,38,38,39,39,40,40,41,41,42,42,43,43,44,44,45,45,46,46,47,47,49,49,50,50,51,51,52,52,53,53,54,54,55,55,56,56,57,57,58,58,59,59,60,60,61,61,62,62],"right_children":[2,4,6,8,10,12,14,16,18,20,22,24,26,28,30,32,34,36,38,40,42,44,46,48,50,52,54,56,58,60,62,64,66,68,70,72,74,76,78,80,82,84,86,88,90,92,94,96,-1,98,100,102,104,106,108,110,112,114,116,118,120,122,124,-1,-1,-1,-1,-1,-1,-1,-1,-1,-1,-1,-1,-1,-1,-1,-1,-1,-1,-1,-1,-1,-1,-1,-1,-1,-1,-1,-1,-1,-1,-1,-1,-1,-1,-1,-1,-1,-1,-1,-1,-1,-1,-1,-1,-1,-1,-1,-1,-1,-1,-1,-1,-1,-1,-1,-1,-1,-1,-1,-1,-1,-1],"split_conditions":[6E-1,4.77E0,6.16E0,4.32E0,5.03E0,3E0,6.7E0,5E0,3E0,5E0,3E0,5.76E0,3E0,3E0,2E0,4.12E0,2.5E-1,2E0,4E0,4.79E0,2E0,6E0,3E0,8.6E-1,1E0,1.188108E2,1.1947362E2,2E0,4E0,1.5E0,2E0,3.823697E1,4.29E0,3E0,3E0,4.65E0,4E0,4E0,6E0,7.174241E1,4.82E0,4.79E0,5E0,3E0,8.470656E1,2E0,5E0,1E0,5.3352762E-2,8.1E-1,2E0,1E0,2E0,5E0,6E0,1E0,2E0,2E0,5E0,1E0,2E0,7.16E0,6.89E0,-5.8781277E-2,-4.920853E-2,-3.4624703E-2,-4.492653E-2,-5.0164074E-2,-3.9974824E-2,-3.8238905E-2,-2.7922247E-2,-4.7224898E-2,-3.513154E-2,-3.949656E-2,-3.0231083E-2,-3.850433E-2,-2.7523667E-2,-2.1408893E-2,-1.3957853E-2,-1.3943928E-2,-2.964955E-2,-2.943675E-2,-2.1017922E-2,-1.08024245E-2,-2.5688319E-2,-1.2590873E-2,-4.900562E-3,-2.3093708E-2,-1.3953718E-2,-9.207223E-3,-2.8289584E-3,-1.8194402E-2,-9.472364E-3,-4.095147E-3,4.1811666E-3,-1.427332E-2,-3.3440702E-3,-7.975587E-3,3.0069114E-4,-1.9263076E-3,9.143102E-3,-2.4846137E-2,2.466716E-3,7.3557603E-3,1.4215911E-2,9.0146735E-3,1.9135423E-2,1.9991938E-2,3.420102E-2,-8.780009E-3,1.1085556E-2,1.8747745E-2,2.5485843E-2,1.575981E-2,2.893917E-2,3.7021413E-2,5.047812E-2,1.8321468E-2,2.6612613E-2,3.0703718E-2,4.1439515E-2,2.7800456E-2,3.9206218E-2,3.9457683E-2,4.614834E-2],"split_indices":[1,6,0,6,0,5,0,4,4,4,4,0,4,4,5,6,1,4,5,0,5,5,5,1,5,3,3,5,5,1,4,3,0,5,5,6,5,4,5,3,6,0,5,5,3,5,4,5,0,1,4,4,4,4,4,4,4,5,4,5,4,0,0,0,0,0,0,0,0,0,0,0,0,0,0,0,0,0,0,0,0,0,0,0,0,0,0,0,0,0,0,0,0,0,0,0,0,0,0,0,0,0,0,0,0,0,0,0,0,0,0,0,0,0,0,0,0,0,0,0,0,0,0,0,0],"split_type":[0,0,0,0,0,0,0,0,0,0,0,0,0,0,0,0,0,0,0,0,0,0,0,0,0,0,0,0,0,0,0,0,0,0,0,0,0,0,0,0,0,0,0,0,0,0,0,0,0,0,0,0,0,0,0,0,0,0,0,0,0,0,0,0,0,0,0,0,0,0,0,0,0,0,0,0,0,0,0,0,0,0,0,0,0,0,0,0,0,0,0,0,0,0,0,0,0,0,0,0,0,0,0,0,0,0,0,0,0,0,0,0,0,0,0,0,0,0,0,0,0,0,0,0,0],"sum_hessian":[3.5644E4,1.75E4,1.8144E4,1.0699E4,6.801E3,6.429E3,1.1715E4,2.653E3,8.046E3,2.091E3,4.71E3,1.851E3,4.578E3,7.057E3,4.658E3,1.467E3,1.186E3,1.975E3,6.071E3,1.446E3,6.45E2,1.565E3,3.145E3,7.61E2,1.09E3,2.44E3,2.138E3,4.248E3,2.809E3,1.632E3,3.026E3,2.36E2,1.231E3,2.78E2,9.08E2,4.99E2,1.476E3,3.005E3,3.066E3,3.08E2,1.138E3,8E1,5.65E2,1.232E3,3.33E2,4.81E2,2.664E3,7.58E2,3E0,1.96E2,8.94E2,1.202E3,1.238E3,1.399E3,7.39E2,5.39E2,3.709E3,1.642E3,1.167E3,8.72E2,7.6E2,1.171E3,1.855E3,5.4E1,1.82E2,5.52E2,6.79E2,2.7E1,2.51E2,1.99E2,7.09E2,3.36E2,1.63E2,5.65E2,9.11E2,7.71E2,2.234E3,2.334E3,7.32E2,2.96E2,1.2E1,3.39E2,7.99E2,1E1,7E1,4.02E2,1.63E2,2.81E2,9.51E2,1.3E2,2.03E2,1.91E2,2.9E2,1.887E3,7.77E2,1.17E2,6.41E2,1.17E2,7.9E1,1.58E2,7.36E2,3.3E1,1.169E3,5.47E2,6.91E2,1.046E3,3.53E2,6.9E2,4.9E1,2.7E1,5.12E2,1.892E3,1.817E3,3.46E2,1.296E3,9.11E2,2.56E2,3.59E2,5.13E2,1.79E2,5.81E2,6.42E2,5.29E2,9.08E2,9.47E2],"tree_param":{"num_deleted":"0","num_feature":"7","num_nodes":"125","size_leaf_vector":"1"}},{"base_weights":[-2.1743673E-4,-1.8956666E-1,2.1101095E-1,-2.6077303E-1,-5.6171473E-2,1.1632412E-1,2.871806E-1,-3.1286377E-1,-2.2016205E-1,-1.3483523E-1,-3.8101103E-2,7.614368E-2,1.7190392E-1,2.6298845E-1,3.5808355E-1,-4.388342E-1,-2.9975092E-1,-2.9560617E-1,-1.9967495E-1,-1.6776437E-1,-8.458641E-2,-7.061394E-2,5.6631323E-3,1.1097346E-2,1.0176318E-1,1.0883064E-1,1.994992E-1,2.0089214E-1,3.0001476E-1,2.9143965E-1,3.7338868E-1,-5.4293014E-2,-4.1198164E-1,-3.6753675E-1,-2.7949625E-1,-4.1279727E-1,-2.7889505E-1,-2.1878728E-1,-1.6715685E-1,-2.1496595E-1,-1.2886906E-1,4.1725002E-2,-8.752828E-2,-8.7317474E-2,-9.784984E-3,-1.0152139E-2,7.1691595E-2,-7.132562E-2,2.958443E-2,8.639653E-2,1.7034468E-1,3.6872186E-2,1.2158782E-1,1.7564592E-1,2.2954783E-1,1.103012E-1,2.1928626E-1,2.744884E-1,3.3619836E-1,2.6254505E-1,4.3353608E-1,3.5499585E-1,4.21311E-1,-3.925234E-2,-4.6041977E-2,-4.3287523E-2,-3.4476463E-2,-3.0273978E-2,-2.4006698E-2,-5.3435583E-2,-3.5965465E-2,-3.0590927E-2,-2.3032045E-2,-1.43235475E-2,-2.3125267E-2,-1.0611913E-2,-1.8097099E-2,-2.618048E-2,-1.9110767E-2,-1.6407855E-2,-1.1572025E-2,-1.8169275E-2,-7.2188834E-3,-1.3008865E-2,-6.7434995E-3,-4.5497543E-3,8.877424E-4,-2.7652027E-3,7.824106E-4,3.5801635E-3,1.0841276E-2,-9.045796E-3,-4.9584205E-3,-1.9903863E-2,3.3242076E-3,4.208925E-3,1.0081422E-2,1.221685E-2,1.8019062E-2,5.465431E-3,-8.461044E-4,6.8914625E-3,1.2988153E-2,1.5049559E-2,1.9183634E-2,1.6535504E-2,2.3540117E-2,2.917039E-3,1.3985001E-2,1.9259809E-2,2.6715135E-2,2.5450597E-2,3.0663764E-2,3.119192E-2,3.553673E-2,2.195207E-2,2.9199371E-2,2.689062E-2,4.52194E-2,3.290825E-2,3.881368E-2,2.7701377E-3,4.220053E-2],"categories":[],"categories_nodes":[],"categories_segments":[],"categories_sizes":[],"default_left":[0,0,0,0,0,0,0,0,0,0,0,0,0,0,0,0,0,0,0,0,0,0,0,0,0,0,0,0,0,0,0,0,0,0,0,0,0,0,0,0,0,0,0,0,0,0,0,0,0,0,0,0,0,0,0,0,0,0,0,0,0,0,0,0,0,0,0,0,0,0,0,0,0,0,0,0,0,0,0,0,0,0,0,0,0,0,0,0,0,0,0,0,0,0,0,0,0,0,0,0,0,0,0,0,0,0,0,0,0,0,0,0,0,0,0,0,0,0,0,0,0,0,0],"id":13,"left_children":[1,3,5,7,9,11,13,15,17,19,21,23,25,27,29,31,33,35,37,39,41,43,45,47,49,51,53,55,57,59,61,-1,63,65,67,69,71,73,75,77,79,-1,81,83,85,87,89,91,93,95,97,99,101,103,105,107,109,111,113,115,117,119,121,-1,-1,-1,-1,-1,-1,-1,-1,-1,-1,-1,-1,-1,-1,-1,-1,-1,-1,-1,-1,-1,-1,-1,-1,-1,-1,-1,-1,-1,-1,-1,-1,-1,-1,-1,-1,-1,-1,-1,-1,-1,-1,-1,-1,-1,-1,-1,-1,-1,-1,-1,-1,-1,-1,-1,-1,-1,-1,-1,-1],"loss_changes":[1.423535E3,1.7825488E2,1.21305664E2,2.5815857E1,9.281414E0,1.674054E1,1.5897522E1,8.718933E0,1.0573364E1,2.0044823E0,7.5616894E0,7.257948E0,5.4557266E0,1.5930664E1,2.3075256E0,1.1823273E0,6.564453E0,2.7578278E0,3.3275757E0,1.323534E0,7.5254464E-1,3.097108E0,2.3670166E0,1.8793828E0,3.2786217E0,8.767843E-1,1.5279465E0,4.309967E0,3.9301453E0,1.7214775E0,1.5454102E0,0E0,2.0004272E-1,1.5082855E0,3.3576965E0,9.7706795E-1,1.6183472E0,3.1746063E0,1.6739082E0,3.198576E-1,1.6897583E-1,0E0,6.845436E-1,2.0253754E0,4.3894923E-1,5.755873E-1,5.733681E-1,8.95226E-2,8.48692E-1,1.6279106E0,2.4883461E-1,1.1815615E-1,3.470869E-1,4.6953583E-1,3.2366943E-1,1.0531378E0,2.709076E0,1.5659027E0,7.254944E-1,4.0976334E-1,1.0570526E-1,1.0711517E0,1.3261414E-1,0E0,0E0,0E0,0E0,0E0,0E0,0E0,0E0,0E0,0E0,0E0,0E0,0E0,0E0,0E0,0E0,0E0,0E0,0E0,0E0,0E0,0E0,0E0,0E0,0E0,0E0,0E0,0E0,0E0,0E0,0E0,0E0,0E0,0E0,0E0,0E0,0E0,0E0,0E0,0E0,0E0,0E0,0E0,0E0,0E0,0E0,0E0,0E0,0E0,0E0,0E0,0E0,0E0,0E0,0E0,0E0,0E0,0E0,0E0,0E0],"parents":[2147483647,0,0,1,1,2,2,3,3,4,4,5,5,6,6,7,7,8,8,9,9,10,10,11,11,12,12,13,13,14,14,15,15,16,16,17,17,18,18,19,19,20,20,21,21,22,22,23,23,24,24,25,25,26,26,27,27,28,28,29,29,30,30,32,32,33,33,34,34,35,35,36,36,37,37,38,38,39,39,40,40,42,42,43,43,44,44,45,45,46,46,47,47,48,48,49,49,50,50,51,51,52,52,53,53,54,54,55,55,56,56,57,57,58,58,59,59,60,60,61,61,62,62],"right_children":[2,4,6,8,10,12,14,16,18,20,22,24,26,28,30,32,34,36,38,40,42,44,46,48,50,52,54,56,58,60,62,-1,64,66,68,70,72,74,76,78,80,-1,82,84,86,88,90,92,94,96,98,100,102,104,106,108,110,112,114,116,118,120,122,-1,-1,-1,-1,-1,-1,-1,-1,-1,-1,-1,-1,-1,-1,-1,-1,-1,-1,-1,-1,-1,-1,-1,-1,-1,-1,-1,-1,-1,-1,-1,-1,-1,-1,-1,-1,-1,-1,-1,-1,-1,-1,-1,-1,-1,-1,-1,-1,-1,-1,-1,-1,-1,-1,-1,-1,-1,-1,-1,-1],"split_conditions":[5.66E0,4.4E-1,1.614897E2,4.41E0,3E0,9E-1,2.0758469E2,2E0,3E0,1.263202E2,8.926641E1,3E0,3E0,3E0,1E0,1E0,3E-1,1E0,4.72E0,2E0,4.71E0,6E0,6E0,1E0,6E0,1E0,5E0,1E0,1.92928E2,1.7E0,2.44719E2,-5.4293014E-2,4.38E0,4E0,5E0,3.8E-1,4.68E0,4.44E0,4.75E0,1E0,5.12E0,4.1725002E-2,1E0,8.202981E1,5.11E0,9.593665E1,5.39E0,5.83E0,7E-1,7.1E-1,1.1488936E2,9.8E-1,6.09E0,6.21E0,6.09E0,1.730157E2,1.17E0,5E0,4E0,2.3939194E2,7.51E0,3E0,7.29E0,-3.925234E-2,-4.6041977E-2,-4.3287523E-2,-3.4476463E-2,-3.0273978E-2,-2.4006698E-2,-5.3435583E-2,-3.5965465E-2,-3.0590927E-2,-2.3032045E-2,-1.43235475E-2,-2.3125267E-2,-1.0611913E-2,-1.8097099E-2,-2.618048E-2,-1.9110767E-2,-1.6407855E-2,-1.1572025E-2,-1.8169275E-2,-7.2188834E-3,-1.3008865E-2,-6.7434995E-3,-4.5497543E-3,8.877424E-4,-2.7652027E-3,7.824106E-4,3.5801635E-3,1.0841276E-2,-9.045796E-3,-4.9584205E-3,-1.9903863E-2,3.3242076E-3,4.208925E-3,1.0081422E-2,1.221685E-2,1.8019062E-2,5.465431E-3,-8.461044E-4,6.8914625E-3,1.2988153E-2,1.5049559E-2,1.9183634E-2,1.6535504E-2,2.3540117E-2,2.917039E-3,1.3985001E-2,1.9259809E-2,2.6715135E-2,2.5450597E-2,3.0663764E-2,3.119192E-2,3.553673E-2,2.195207E-2,2.9199371E-2,2.689062E-2,4.52194E-2,3.290825E-2,3.881368E-2,2.7701377E-3,4.220053E-2],"split_indices":[0,1,3,6,5,1,3,5,5,2,3,5,5,5,5,5,1,5,6,5,0,5,5,5,5,5,5,5,2,1,2,0,0,5,5,1,6,0,0,5,0,0,5,3,6,3,0,0,1,1,3,1,0,0,0,3,1,5,5,3,0,5,0,0,0,0,0,0,0,0,0,0,0,0,0,0,0,0,0,0,0,0,0,0,0,0,0,0,0,0,0,0,0,0,0,0,0,0,0,0,0,0,0,0,0,0,0,0,0,0,0,0,0,0,0,0,0,0,0,0,0,0,0],"split_type":[0,0,0,0,0,0,0,0,0,0,0,0,0,0,0,0,0,0,0,0,0,0,0,0,0,0,0,0,0,0,0,0,0,0,0,0,0,0,0,0,0,0,0,0,0,0,0,0,0,0,0,0,0,0,0,0,0,0,0,0,0,0,0,0,0,0,0,0,0,0,0,0,0,0,0,0,0,0,0,0,0,0,0,0,0,0,0,0,0,0,0,0,0,0,0,0,0,0,0,0,0,0,0,0,0,0,0,0,0,0,0,0,0,0,0,0,0,0,0,0,0,0,0],"sum_hessian":[3.559E4,1.8767E4,1.6823E4,1.2235E4,6.532E3,7.501E3,9.322E3,5.357E3,6.878E3,1.219E3,5.313E3,4.355E3,3.146E3,6.954E3,2.368E3,5.02E2,4.855E3,1.466E3,5.412E3,7.35E2,4.84E2,3.048E3,2.265E3,1.231E3,3.124E3,9.59E2,2.187E3,2.6E3,4.354E3,4.46E2,1.922E3,9.9E1,4.03E2,1.113E3,3.742E3,1.8E2,1.286E3,3.405E3,2.007E3,3.3E2,4.05E2,2E0,4.82E2,2.391E3,6.57E2,1.828E3,4.37E2,2.25E2,1.006E3,2.554E3,5.7E2,1.45E2,8.14E2,1.223E3,9.64E2,4.4E2,2.16E3,2.558E3,1.796E3,3.73E2,7.3E1,1.395E3,5.27E2,2.94E2,1.09E2,2.83E2,8.3E2,2.35E3,1.392E3,5.2E1,1.28E2,8.23E2,4.63E2,4.84E2,2.921E3,3.72E2,1.635E3,1.08E2,2.22E2,1.07E2,2.98E2,6.6E1,4.16E2,7.57E2,1.634E3,2.25E2,4.32E2,9.26E2,9.02E2,2.22E2,2.15E2,1.18E2,1.07E2,1.5E1,9.91E2,6.28E2,1.926E3,9.9E1,4.71E2,1.04E2,4.1E1,1.12E2,7.02E2,4.83E2,7.4E2,8.3E1,8.81E2,1.18E2,3.22E2,1.39E3,7.7E2,1.583E3,9.75E2,8E2,9.96E2,1.55E2,2.18E2,9E0,6.4E1,7.89E2,6.06E2,1E0,5.26E2],"tree_param":{"num_deleted":"0","num_feature":"7","num_nodes":"123","size_leaf_vector":"1"}},{"base_weights":[-1.128852E-4,-1.7588988E-1,1.8300663E-1,-2.3017189E-1,-4.9444787E-2,9.218077E-2,2.547116E-1,-2.7715316E-1,-1.9016366E-1,-8.613657E-2,1.2290858E-2,5.445817E-2,1.385483E-1,2.3169784E-1,3.4214038E-1,-3.130856E-1,-2.2440211E-1,-2.202972E-1,-1.2350533E-1,-1.6229682E-1,-7.1515426E-2,-7.065977E-3,7.3253654E-2,-2.4760695E-2,7.192029E-2,1.0728185E-1,